SVM-light Version V6.02
2 # kernel type
3 # kernel parameter -d 
0.02 # kernel parameter -g 
1 # kernel parameter -s 
1 # kernel parameter -r 
empty# kernel parameter -u 
13 # highest feature index 
5760 # number of training documents 
1107 # number of support vectors plus 1 
-1.1046604 # threshold b, each following line is a SV (starting with alpha*y)
-2 1:0.70499998 2:-0.16599999 3:0.289 4:0.39199999 5:0.61000001 6:0.134 7:0.214 8:2.1110001 9:-1.955 10:-0.271 11:-0.98900002 12:1.613 13:0.021 #
2 1:0.67900002 2:-0.088 3:0.0089999996 4:0.0049999999 5:0.0080000004 6:0.014 7:1 8:23 9:-1 10:0.30000001 11:0 12:2.4170001 13:0.003 #
2 1:0.34799999 2:0.102 3:0.0070000002 4:0.0060000001 5:0.014 6:0.0080000004 7:1 8:3 9:-1 10:0.30000001 11:0 12:2.8099999 13:0.0049999999 #
-2 1:0.78399998 2:-0.70700002 3:0.017999999 4:0.013 5:0.052999999 6:0.025 7:1 8:12 9:-1 10:0.30000001 11:0 12:2.1789999 13:1.026 #
2 1:0.35800001 2:-0.064999998 3:0.027000001 4:0.016000001 5:0.079999998 6:0.046999998 7:0.5 8:6 9:-1 10:0.30000001 11:0 12:2.2739999 13:0 #
-2 1:0.48800001 2:0.112 3:0.024 4:0.02 5:0.033 6:0.028999999 7:1 8:3 9:-1 10:0.30000001 11:0 12:2.7839999 13:0 #
-2 1:0.801 2:0.26100001 3:0.068999998 4:0.182 5:0.189 6:0.075999998 7:0.257 8:2.1110001 9:0 10:-0.477 11:0 12:2.1700001 13:0.94800001 #
-2 1:0.73199999 2:-0.088 3:0.016000001 4:0.021 5:0.029999999 6:0.0099999998 7:0.167 8:2.8329999 9:-1 10:0.30000001 11:0 12:2.967 13:0 #
2 1:0.62800002 2:0.094999999 3:0.037 4:0.037999999 5:0.068000004 6:0.035999998 7:0.30000001 8:7.1669998 9:-1 10:-0.301 11:-1 12:2.447 13:0 #
2 1:0.39399999 2:-0.85000002 3:0.011 4:0.0040000002 5:0.048999999 6:0.02 7:1 8:5 9:-1 10:0.30000001 11:0 12:2.2149999 13:0 #
-2 1:0.46000001 2:-0.266 3:0.028999999 4:0.075000003 5:0.113 6:0.039999999 7:0.333 8:7.3330002 9:-1 10:0.30000001 11:0 12:2.0610001 13:0.0080000004 #
2 1:0.74800003 2:-0.25 3:0.085000001 4:0.072999999 5:0.13600001 6:0.098999999 7:0.244 8:2.3640001 9:-1.492 10:-0.46599999 11:-0.93300003 12:2.3729999 13:1.354 #
0.43429165938630448495771929628972 1:0.74800003 2:-0.192 3:0.0049999999 4:0.0060000001 5:0.0080000004 6:0.014 7:1 8:24 9:-1 10:0.30000001 11:0 12:2.3770001 13:0 #
-2 1:0.80800003 2:0.186 3:0.093000002 4:0.113 5:0.126 6:0.066 7:0.30599999 8:6.7270002 9:-1 10:-0.48100001 11:-0.972 12:2.332 13:1.312 #
-2 1:0.61299998 2:0.227 3:0.032000002 4:0.033 5:0.039000001 6:0.030999999 7:0.31200001 8:5.8000002 9:-1.585 10:-0.222 11:-1 12:2.7360001 13:0 #
-2 1:0.759 2:0.43599999 3:0.071999997 4:0.068000004 5:0.089000002 6:0.077 7:0.214 8:6 9:-0.648 10:-0.59899998 11:-0.65499997 12:2.642 13:1.515 #
2 1:0.71100003 2:-0.116 3:0.0040000002 4:0.003 5:0.0070000002 6:0.0060000001 7:1 8:2 9:-1 10:0.30000001 11:0 12:2.658 13:0.0020000001 #
2 1:0.63700002 2:-0.55199999 3:0.057 4:0.131 5:0.138 6:0.096000001 7:0.14300001 8:2.6670001 9:-2.45 10:-0.19400001 11:-0.99900001 12:2.461 13:1.446 #
-2 1:0.71799999 2:0.19400001 3:0.094999999 4:0.189 5:0.28799999 6:0.19 7:0.14300001 8:2.5999999 9:-2.6199999 10:-0.229 11:-0.93099999 12:2.072 13:0.87099999 #
2 1:0.51200002 2:-0.479 3:0.018999999 4:0.014 5:0.027000001 6:0.028000001 7:1 8:10.5 9:-1 10:-0.301 11:-1 12:2.4649999 13:0 #
2 1:0.41499999 2:0.597 3:0.0060000001 4:0.0049999999 5:0.015 6:0.0070000002 7:1 8:6 9:-1 10:0.30000001 11:0 12:2.7360001 13:0 #
-2 1:0.67199999 2:-0.31400001 3:0.027000001 4:0.035999998 5:0.056000002 6:0.012 7:0.5 8:2 9:-2 10:-0.176 11:-1 12:2.398 13:0.147 #
-2 1:0.70700002 2:0.13 3:0.103 4:0.22 5:0.294 6:0.186 7:0.13500001 8:2.286 9:-2.3699999 10:-0.207 11:-0.96700001 12:2.076 13:0.84100002 #
2 1:0.60100001 2:-0.50999999 3:0.0070000002 4:0.0070000002 5:0.014 6:0.0080000004 7:1 8:4 9:-1 10:0.30000001 11:0 12:2.4679999 13:0.0060000001 #
2 1:0.234 2:-0.82999998 3:0.02 4:0.015 5:0.034000002 6:0.029999999 7:0.5 8:1.3329999 9:-2 10:-0.176 11:-1 12:2.4619999 13:0 #
-2 1:0.54799998 2:0.26899999 3:0.039000001 4:0.028999999 5:0.090000004 6:0.050000001 7:1 8:5.3330002 9:-1 10:-0.301 11:-1 12:2.22 13:0 #
2 1:0.639 2:0.16500001 3:0.012 4:0.011 5:0.028999999 6:0.013 7:0.31200001 8:2.2 9:-1.585 10:-0.222 11:-1 12:2.743 13:0.0020000001 #
-2 1:0.73699999 2:0.59899998 3:0.0080000004 4:0.0080000004 5:0.011 6:0.0070000002 7:0.667 8:3.75 9:0.58499998 10:-0.602 11:1 12:2.8729999 13:0.0060000001 #
-2 1:0.56999999 2:-0.186 3:0.052000001 4:0.050000001 5:0.115 6:0.052999999 7:0.333 8:2 9:-1 10:0.30000001 11:0 12:2.78 13:0 #
2 1:0.54699999 2:-0.17200001 3:0.018999999 4:0.018999999 5:0.033 6:0.018999999 7:1 8:6 9:-1 10:0.30000001 11:0 12:2.1789999 13:0.0060000001 #
2 1:0.72299999 2:-0.19 3:0.14300001 4:0.14399999 5:0.54500002 6:0.141 7:1 8:6 9:-1 10:0.30000001 11:0 12:1.74 13:0.653 #
-2 1:0.63099998 2:-0.361 3:0.061000001 4:0.074000001 5:0.19 6:0.046999998 7:1 8:4 9:-1 10:0.30000001 11:0 12:2.0639999 13:0 #
-2 1:0.685 2:0.215 3:0.035999998 4:0.034000002 5:0.067000002 6:0.039000001 7:0.667 8:5.5 9:-1.063 10:-0.46799999 11:-0.93099999 12:2.29 13:0.0040000002 #
2 1:0.57099998 2:-0.126 3:0.082000002 4:0.07 5:0.149 6:0.098999999 7:0.417 8:1.8 9:-0.41499999 10:-0.398 11:-1 12:2.2409999 13:0 #
2 1:0.67000002 2:0.148 3:0.017999999 4:0.021 5:0.029999999 6:0.014 7:0.5 8:2.5 9:-1 10:0.30000001 11:0 12:2.734 13:0.003 #
2 1:0.72299999 2:0.20900001 3:0.044 4:0.046 5:0.102 6:0.039999999 7:0.292 8:2.4289999 9:-1.5 10:-0.39399999 11:-0.866 12:2.405 13:0 #
-2 1:0.70700002 2:-0.127 3:0.186 4:0.266 5:0.42899999 6:0.039999999 7:0.13 8:1.429 9:-1 10:-0.301 11:-1 12:1.9910001 13:0 #
-2 1:0.75 2:0.227 3:0.018999999 4:0.017999999 5:0.024 6:0.021 7:0.375 8:2 9:-1.45 10:-0.37 11:-0.99800003 12:2.9360001 13:0.001 #
-2 1:0.73299998 2:0.011 3:0.017000001 4:0.021 5:0.030999999 6:0.011 7:0.2 8:3.2 9:-1 10:0.30000001 11:0 12:2.9679999 13:0 #
2 1:0.32499999 2:-0.119 3:0.011 4:0.0080000004 5:0.028000001 6:0.016000001 7:0.44400001 8:4.5 9:-1 10:-0.301 11:-1 12:2.8540001 13:0 #
2 1:0.50999999 2:0.107 3:0.037999999 4:0.030999999 5:0.052999999 6:0.045000002 7:0.28 8:5.1430001 9:-0.58499998 10:-0.368 11:-1 12:2.723 13:0 #
-2 1:0.75700003 2:0.079999998 3:0.026000001 4:0.022 5:0.050000001 6:0.030999999 7:1 8:6.25 9:-1 10:0.30000001 11:0 12:2.382 13:0.0040000002 #
-2 1:0.70300001 2:0.28400001 3:0.101 4:0.214 5:0.294 6:0.184 7:0.13600001 8:2.0829999 9:-2.45 10:-0.19400001 11:-0.99900001 12:2.076 13:0.84100002 #
-2 1:0.43200001 2:-0.331 3:0.061000001 4:0.072999999 5:0.086999997 6:0.046 7:0.31200001 8:2.4000001 9:-1.585 10:-0.222 11:-1 12:2.5369999 13:0 #
2 1:0.64200002 2:-0.505 3:0.011 4:0.011 5:0.017000001 6:0.011 7:0.5 8:3.5 9:-1 10:0.30000001 11:0 12:2.625 13:1.615 #
-2 1:0.68800002 2:-0.77200001 3:0.02 4:0.026000001 5:0.035999998 6:0.011 7:0.44400001 8:9 9:-1 10:-0.301 11:-1 12:2.5250001 13:0.003 #
2 1:0.62199998 2:0.31799999 3:0.071000002 4:0.055 5:0.141 6:0.094999999 7:0.086999997 8:1.882 9:-2.8180001 10:-0.146 11:-0.99699998 12:2.5580001 13:0.0020000001 #
-2 1:0.77499998 2:0.38499999 3:0.153 4:0.167 5:0.175 6:0.13600001 7:0.097000003 8:1.476 9:-2.221 10:-0.271 11:-1 12:2.4649999 13:1.332 #
2 1:0.86699998 2:-0.090999998 3:0.0040000002 4:0.001 5:0.014 6:0.0080000004 7:1 8:3 9:-1 10:0.30000001 11:0 12:2.4419999 13:0.003 #
-2 1:0.68400002 2:-0.34200001 3:0.034000002 4:0.037 5:0.046999998 6:0.028999999 7:0.44400001 8:4 9:-1 10:-0.301 11:-1 12:2.6500001 13:0.0020000001 #
2 1:0.51099998 2:-0.2 3:0.02 4:0.037999999 5:0.075000003 6:0.044 7:0.28600001 8:3.1670001 9:-1.248 10:-0.52899998 11:-0.95099998 12:2.6270001 13:0 #
2 1:0.64499998 2:0.20200001 3:0.078000002 4:0.071999997 5:0.13 6:0.085000001 7:0.333 8:3.5710001 9:-1.262 10:-0.243 11:-1 12:2.3770001 13:1.3150001 #
-2 1:0.71399999 2:0.152 3:0.026000001 4:0.033 5:0.050999999 6:0.015 7:0.5 8:1.5 9:-1 10:-0.301 11:-1 12:2.405 13:0.15899999 #
2 1:0.75199997 2:-0.50800002 3:0.0089999996 4:0.012 5:0.034000002 6:0.029999999 7:0.75 8:8 9:0 10:-0.477 11:0 12:2.4649999 13:0 #
-2 1:0.81199998 2:0.287 3:0.063000001 4:0.086000003 5:0.083999999 6:0.035 7:0.30000001 8:2.8889999 9:0.80699998 10:-0.653 11:1 12:2.4360001 13:0.42199999 #
-2 1:0.70999998 2:-0.83700001 3:0.0060000001 4:0.0049999999 5:0.017000001 6:0.0089999996 7:1 8:2 9:-1 10:0.30000001 11:0 12:2.471 13:0.0060000001 #
2 1:0.44999999 2:0.15000001 3:0.026000001 4:0.018999999 5:0.055 6:0.034000002 7:0.167 8:3.714 9:-3.585 10:-0.067000002 11:-1 12:2.74 13:0 #
2 1:0.44400001 2:-0.17399999 3:0.0099999998 4:0.0089999996 5:0.028000001 6:0.012 7:0.5 8:2.5 9:-1 10:0.30000001 11:0 12:2.73 13:0.0020000001 #
-2 1:0.69099998 2:0.41499999 3:0.064000003 4:0.082999997 5:0.113 6:0.039000001 7:0.30000001 8:3.8329999 9:-1.883 10:-0.30899999 11:-0.93099999 12:2.408 13:0.014 #
-2 1:0.68599999 2:-0.212 3:0.161 4:0.175 5:0.27200001 6:0.139 7:0.278 8:4.4000001 9:-1.675 10:-0.40900001 11:-0.972 12:2.013 13:0.83999997 #
-2 1:0.63499999 2:0.052000001 3:0.029999999 4:0.037999999 5:0.035999998 6:0.018999999 7:0.090000004 8:3.8570001 9:-2.8740001 10:-0.105 11:-1 12:2.994 13:0.001 #
2 1:0.62300003 2:-0.117 3:0.081 4:0.071000002 5:0.149 6:0.096000001 7:0.417 8:1.6 9:-0.41499999 10:-0.398 11:-1 12:2.2409999 13:0 #
2 1:0.42699999 2:0.103 3:0.043000001 4:0.035999998 5:0.077 6:0.050999999 7:0.214 8:2.1110001 9:-0.67799997 10:-0.352 11:-1 12:2.655 13:0 #
2 1:0.59799999 2:-0.40000001 3:0.057999998 4:0.052000001 5:0.086000003 6:0.068000004 7:0.375 8:3 9:-1 10:-0.301 11:-1 12:2.4649999 13:0 #
2 1:0.39399999 2:0.25299999 3:0.0049999999 4:0.0049999999 5:0.026000001 6:0.017000001 7:0.5 8:4.3330002 9:-2 10:-0.176 11:-1 12:2.8410001 13:0.0040000002 #
2 1:0.71200001 2:0.35100001 3:0.121 4:0.122 5:0.19 6:0.119 7:0.169 8:3.7690001 9:-2.0420001 10:-0.27900001 11:-0.91000003 12:2.3840001 13:1.15 #
-2 1:0.72600001 2:0.46799999 3:0.039999999 4:0.071000002 5:0.096000001 6:0.090000004 7:0.21699999 8:4.6919999 9:-1.161 10:-0.43099999 11:-0.99699998 12:2.4790001 13:1.251 #
2 1:0.741 2:-0.035 3:0.43900001 4:0.51700002 5:0.73500001 6:0.32800001 7:0.155 8:1.5880001 9:-1.126 10:-0.45199999 11:-0.94800001 12:1.6900001 13:0.161 #
2 1:0.69700003 2:0.37599999 3:0.017999999 4:0.035 5:0.057 6:0.037999999 7:0.222 8:2.5 9:-2.0179999 10:-0.26199999 11:-0.99800003 12:2.645 13:0.0080000004 #
-2 1:0.69199997 2:0.178 3:0.142 4:0.148 5:0.198 6:0.132 7:0.17900001 8:2.2 9:-2.1489999 10:-0.237 11:-0.995 12:2.2360001 13:0 #
-2 1:0.60699999 2:0.152 3:0.093000002 4:0.089000002 5:0.123 6:0.097999997 7:0.167 8:3.1670001 9:-1 10:0.30000001 11:0 12:2.358 13:0 #
-2 1:0.727 2:-0.29100001 3:0.17200001 4:0.18799999 5:0.177 6:0.12899999 7:0.039999999 8:2.2709999 9:-2.23 10:-0.28999999 11:-0.95200002 12:2.885 13:0.30500001 #
-2 1:0.71899998 2:-0.34400001 3:0.17200001 4:0.18799999 5:0.177 6:0.127 7:0.039000001 8:2.2750001 9:-2.2579999 10:-0.32100001 11:-0.92000002 12:2.885 13:0.30500001 #
2 1:0.68900001 2:0.028999999 3:0.1 4:0.079000004 5:0.191 6:0.12899999 7:0.25 8:4 9:-1 10:0.30000001 11:0 12:2.0409999 13:0.016000001 #
2 1:0.86799997 2:-0.25799999 3:0.0089999996 4:0.0020000001 5:0.044 6:0.017000001 7:1 8:3 9:-1 10:0.30000001 11:0 12:2.26 13:0 #
2 1:0.56599998 2:0.0020000001 3:0.025 4:0.025 5:0.048 6:0.024 7:0.167 8:1.286 9:-3.585 10:-0.067000002 11:-1 12:2.77 13:0.26300001 #
-2 1:0.71700001 2:0.57099998 3:0.011 4:0.011 5:0.025 6:0.011 7:0.75 8:3.6670001 9:0 10:-0.477 11:0 12:2.563 13:0 #
2 1:0.67799997 2:-0.41100001 3:0.054000001 4:0.061000001 5:0.061000001 6:0.045000002 7:0.12899999 8:3.227 9:-1.601 10:-0.426 11:-0.97799999 12:2.96 13:1.914 #
2 1:0.56599998 2:-0.19400001 3:0.057999998 4:0.048 5:0.108 6:0.071999997 7:0.375 8:5.2220001 9:-0.78500003 10:-0.63300002 11:-0.48199999 12:2.4590001 13:0.072999999 #
-2 1:0.74299997 2:-0.0089999996 3:0.017000001 4:0.022 5:0.030999999 6:0.0099999998 7:0.167 8:2.8329999 9:-1 10:0.30000001 11:0 12:2.9679999 13:0 #
-2 1:0.588 2:0.183 3:0.093000002 4:0.085000001 5:0.123 6:0.104 7:0.167 8:3 9:-3.585 10:-0.067000002 11:-1 12:2.358 13:0 #
2 1:0.63499999 2:0.43200001 3:0.032000002 4:0.029999999 5:0.057999998 6:0.034000002 7:0.375 8:2.5 9:0 10:-0.477 11:0 12:2.517 13:0.34099999 #
-2 1:0.44400001 2:-0.33000001 3:0.059999999 4:0.077 5:0.115 6:0.029999999 7:0.26699999 8:1.75 9:-0.26300001 10:-0.426 11:-1 12:2.2409999 13:0 #
2 1:0.66600001 2:0.449 3:0.023 4:0.017000001 5:0.037999999 6:0.032000002 7:0.333 8:2.75 9:-2.585 10:-0.125 11:-1 12:2.835 13:0.003 #
-2 1:0.77600002 2:-0.44499999 3:0.014 4:0.039999999 5:0.055 6:0.0099999998 7:0.46700001 8:1.143 9:-0.671 10:-0.57099998 11:-0.93099999 12:2.408 13:0.17200001 #
2 1:0.78100002 2:0.31 3:0.096000001 4:0.105 5:0.121 6:0.085000001 7:0.2 8:3.5 9:-2.3199999 10:-0.255 11:-0.93099999 12:2.4100001 13:0.78799999 #
2 1:0.54799998 2:0.47799999 3:0.037999999 4:0.059999999 5:0.13500001 6:0.093999997 7:0.115 8:1.556 9:-2.244 10:-0.28 11:-0.963 12:2.559 13:0 #
2 1:0.63300002 2:0.12 3:0.025 4:0.021 5:0.033 6:0.030999999 7:0.15700001 8:2.9089999 9:-2.3110001 10:-0.213 11:-0.99800003 12:2.8789999 13:0.003 #
2 1:0.80000001 2:-0.52999997 3:0.02 4:0.012 5:0.030999999 6:0.035999998 7:0.55599999 8:6 9:-0.63099998 10:-0.398 11:-1 12:2.4649999 13:0 #
-2 1:0.57800001 2:0.133 3:0.093999997 4:0.086999997 5:0.123 6:0.102 7:0.167 8:2.714 9:-3.585 10:-0.067000002 11:-1 12:2.358 13:0 #
2 1:0.722 2:-0.043000001 3:0.46399999 4:0.53200001 5:0.73500001 6:0.36700001 7:0.189 8:1.471 9:-0.64899999 10:-0.60399997 11:-0.62699997 12:1.6900001 13:0.161 #
-2 1:0.71700001 2:0.082000002 3:0.18700001 4:0.43000001 5:0.52899998 6:0.28400001 7:0.131 8:2.391 9:-1 10:-0.47799999 11:-0.99400002 12:2.0090001 13:0.58600003 #
-2 1:0.67699999 2:0.361 3:0.018999999 4:0.050000001 5:0.054000001 6:0.024 7:0.184 8:2.556 9:-1.322 10:-0.255 11:-1 12:2.7160001 13:0.148 #
-2 1:0.796 2:-0.086000003 3:0.082999997 4:0.182 5:0.19400001 6:0.148 7:0.119 8:2.0339999 9:-1.677 10:-0.48100001 11:-0.94300002 12:2.569 13:1.4400001 #
2 1:0.745 2:0.315 3:0.048 4:0.039999999 5:0.086999997 6:0.059 7:0.34999999 8:3.286 9:-1.2920001 10:-0.39700001 11:-0.99199998 12:2.3380001 13:0 #
-2 1:0.66600001 2:0.169 3:0.052999999 4:0.044 5:0.117 6:0.066 7:0.28 8:4.4289999 9:-0.58499998 10:-0.368 11:-1 12:2.3299999 13:0.114 #
2 1:0.74800003 2:0.40000001 3:0.079000004 4:0.11 5:0.105 6:0.029999999 7:0.243 8:1.294 9:-1.128 10:-0.57800001 11:-0.89700001 12:2.4119999 13:1.351 #
-2 1:0.77999997 2:0.35699999 3:0.155 4:0.167 5:0.182 6:0.14 7:0.116 8:1.5650001 9:-1.962 10:-0.333 11:-0.96100003 12:2.4649999 13:1.332 #
2 1:0.61500001 2:0.131 3:0.17399999 4:0.186 5:0.228 6:0.15899999 7:0.14 8:2.6500001 9:-1.626 10:-0.40099999 11:-0.99000001 12:2.3399999 13:0.301 #
-2 1:0.551 2:0.278 3:0.057 4:0.052999999 5:0.114 6:0.061000001 7:0.44400001 8:3.25 9:-1 10:-0.301 11:-1 12:2.0899999 13:0.021 #
2 1:0.64099997 2:0.317 3:0.074000001 4:0.059999999 5:0.12800001 6:0.094999999 7:0.112 8:1.938 9:-2.0179999 10:-0.26199999 11:-0.99800003 12:2.556 13:0 #
-2 1:0.74699998 2:-0.126 3:0.1 4:0.13500001 5:0.13600001 6:0.057 7:0.107 8:2 9:-2.7409999 10:-0.177 11:-0.98900002 12:2.48 13:0 #
2 1:0.68800002 2:-0.15700001 3:0.0060000001 4:0.0040000002 5:0.0099999998 6:0.0089999996 7:0.5 8:4 9:-1 10:0.30000001 11:0 12:2.7690001 13:0.0070000002 #
2 1:0.67199999 2:-0.296 3:0.169 4:0.182 5:0.221 6:0.153 7:0.25 8:3.8 9:-1.432 10:-0.47499999 11:-0.94700003 12:2.1170001 13:1.0829999 #
-2 1:0.77499998 2:0.17900001 3:0.035999998 4:0.103 5:0.114 6:0.028999999 7:0.22400001 8:2.1819999 9:-1.5 10:-0.35699999 11:-0.95300001 12:2.267 13:0.023 #
2 1:0.62599999 2:0.228 3:0.045000002 4:0.044 5:0.063000001 6:0.046999998 7:0.111 8:2.0829999 9:-2.849 10:-0.215 11:-0.93099999 12:2.8970001 13:0 #
-2 1:0.75 2:0.41100001 3:0.17299999 4:0.212 5:0.317 6:0.12899999 7:0.22499999 8:3.444 9:-0.67799997 10:-0.352 11:-1 12:2.017 13:0.92699999 #
-2 1:0.70099998 2:-0.26199999 3:0.064000003 4:0.083999999 5:0.064999998 6:0.041999999 7:0.132 8:2.895 9:-1.149 10:-0.44 11:-0.99900001 12:2.7880001 13:0 #
2 1:0.56400001 2:-0.20299999 3:0.068999998 4:0.082999997 5:0.123 6:0.052000001 7:0.19599999 8:2 9:-0.193 10:-0.43900001 11:-1 12:2.6429999 13:0.0040000002 #
-2 1:0.75700003 2:0.36700001 3:0.199 4:0.21699999 5:0.29100001 6:0.177 7:0.119 8:2.733 9:-2.063 10:-0.264 11:-0.98000002 12:2.0680001 13:0.833 #
-2 1:0.71799999 2:-0.050000001 3:0.089000002 4:0.090000004 5:0.17 6:0.088 7:0.2 8:2 9:-3.322 10:-0.079000004 11:-1 12:2.1489999 13:0.056000002 #
2 1:0.54699999 2:0.061999999 3:0.022 4:0.0080000004 5:0.089000002 6:0.041999999 7:0.5 8:3.3329999 9:-2 10:-0.176 11:-1 12:2.0929999 13:0.028000001 #
-2 1:0.75300002 2:0.018999999 3:0.028999999 4:0.037 5:0.059999999 6:0.016000001 7:0.625 8:1.6 9:-0.95499998 10:-0.493 11:-0.95499998 12:2.398 13:0.162 #
-2 1:0.671 2:0.242 3:0.14 4:0.168 5:0.211 6:0.098999999 7:0.121 8:3.059 9:-0.48500001 10:-0.38499999 11:-1 12:2.3380001 13:0.016000001 #
2 1:0.77200001 2:0.037 3:0.27900001 4:0.264 5:0.44999999 6:0.296 7:0.156 8:2.8670001 9:-1.563 10:-0.352 11:-0.96100003 12:1.778 13:0.699 #
-2 1:0.57099998 2:0.243 3:0.13500001 4:0.178 5:0.118 6:0.081 7:0.052999999 8:2.8139999 9:-2.3329999 10:-0.257 11:-0.92900002 12:2.8310001 13:0.001 #
2 1:0.67000002 2:0.377 3:0.033 4:0.028999999 5:0.061000001 6:0.037999999 7:0.26699999 8:2.375 9:-0.26300001 10:-0.426 11:-1 12:2.517 13:0.34099999 #
2 1:0.53299999 2:0.45699999 3:0.074000001 4:0.059 5:0.138 6:0.093999997 7:0.121 8:2.062 9:-1.87 10:-0.285 11:-0.99699998 12:2.559 13:0 #
-2 1:0.54000002 2:0.0049999999 3:0.028000001 4:0.033 5:0.050000001 6:0.021 7:0.28 8:1 9:-1.775 10:-0.30399999 11:-1 12:2.767 13:0.0099999998 #
2 1:0.74199998 2:0.026000001 3:0.088 4:0.067000002 5:0.127 6:0.12 7:0.125 8:4.8670001 9:-1.307 10:-0.63099998 11:-0.79799998 12:2.6589999 13:0 #
-2 1:0.755 2:0.25999999 3:0.094999999 4:0.105 5:0.152 6:0.083999999 7:0.186 8:4.6149998 9:-1.5039999 10:-0.33399999 11:-0.99299997 12:2.3859999 13:0.40200001 #
-2 1:0.62699997 2:-0.537 3:0.018999999 4:0.021 5:0.027000001 6:0.017000001 7:0.333 8:4.3330002 9:-1 10:0.30000001 11:0 12:2.7390001 13:0 #
2 1:0.76800001 2:0.41999999 3:0.013 4:0.0099999998 5:0.027000001 6:0.017000001 7:0.417 8:2.4000001 9:-1.557 10:-0.36300001 11:-0.93099999 12:2.612 13:0.039999999 #
-2 1:0.84500003 2:0.28799999 3:0.081 4:0.17900001 5:0.34900001 6:0.12899999 7:0.375 8:3.7780001 9:-0.78500003 10:-0.63300002 11:-0.48199999 12:1.633 13:0.51899999 #
-2 1:0.71399999 2:-0.025 3:0.071999997 4:0.184 5:0.212 6:0.093000002 7:0.182 8:3.1110001 9:-1.484 10:-0.47499999 11:-0.89899999 12:2.3540001 13:0.023 #
2 1:0.76300001 2:0.155 3:0.086000003 4:0.114 5:0.101 6:0.043000001 7:0.234 8:1.6670001 9:-1.3609999 10:-0.58399999 11:-0.91500002 12:2.4119999 13:1.3940001 #
2 1:0.74699998 2:-0.014 3:0.22400001 4:0.52700001 5:0.73500001 6:0.33899999 7:0.15700001 8:1.789 9:-1.531 10:-0.43099999 11:-0.98199999 12:1.6900001 13:0.161 #
-2 1:0.71399999 2:0.206 3:0.111 4:0.115 5:0.29800001 6:0.098999999 7:0.257 8:1.8890001 9:-1.5 10:-0.34400001 11:-0.99900001 12:2.017 13:0 #
2 1:0.792 2:0.052000001 3:0.068000004 4:0.07 5:0.107 6:0.066 7:0.27500001 8:2.1819999 9:-1.3940001 10:-0.48500001 11:-0.96100003 12:2.487 13:0.093999997 #
2 1:0.87599999 2:0.097999997 3:0.0099999998 4:0.011 5:0.016000001 6:0.0089999996 7:0.5 8:4 9:-2 10:-0.176 11:-1 12:2.7390001 13:0 #
2 1:0.75 2:-0.094999999 3:0.45500001 4:0.537 5:0.75 6:0.34200001 7:0.155 8:1.647 9:-1.126 10:-0.45199999 11:-0.94800001 12:1.681 13:0.146 #
-2 1:0.708 2:0.31200001 3:0.102 4:0.113 5:0.154 6:0.089000002 7:0.175 8:2.8180001 9:-2.105 10:-0.249 11:-0.97100002 12:2.2739999 13:0.29800001 #
2 1:0.69700003 2:0.142 3:0.048 4:0.044 5:0.102 6:0.055 7:0.31200001 8:2.5999999 9:-1.585 10:-0.222 11:-1 12:2.332 13:0.11 #
2 1:0.53100002 2:0.50099999 3:0.039000001 4:0.035999998 5:0.082999997 6:0.043000001 7:0.31200001 8:3.2 9:-1.585 10:-0.222 11:-1 12:2.425 13:0 #
-2 1:0.662 2:0.079999998 3:0.029999999 4:0.074000001 5:0.052999999 6:0.044 7:0.097999997 8:3.6819999 9:-2.1830001 10:-0.278 11:-0.98699999 12:2.9860001 13:0 #
2 1:0.74900001 2:-0.021 3:0.22499999 4:0.528 5:0.73500001 6:0.34 7:0.15700001 8:1.842 9:-1.531 10:-0.43099999 11:-0.98199999 12:1.6900001 13:0.161 #
2 1:0.59100002 2:0.052999999 3:0.086000003 4:0.071999997 5:0.167 6:0.105 7:0.333 8:2.25 9:-2.585 10:-0.125 11:-1 12:2.2409999 13:0 #
-2 1:0.57099998 2:0.36300001 3:0.068999998 4:0.07 5:0.121 6:0.068000004 7:0.17900001 8:1.7 9:-1 10:-0.301 11:-1 12:2.378 13:0.0040000002 #
-2 1:0.68900001 2:0.064999998 3:0.101 4:0.207 5:0.303 6:0.197 7:0.125 8:2.286 9:-2.1259999 10:-0.27700001 11:-0.93099999 12:2.076 13:0.84100002 #
-2 1:0.80800003 2:0.273 3:0.20900001 4:0.264 5:0.271 6:0.13 7:0.124 8:2.2690001 9:-1.533 10:-0.43599999 11:-0.99199998 12:2.3599999 13:0.93199998 #
2 1:0.722 2:0.49599999 3:0.071999997 4:0.059999999 5:0.107 6:0.088 7:0.156 8:3.6429999 9:-1.419 10:-0.38999999 11:-0.93099999 12:2.6689999 13:0.028000001 #
2 1:0.76800001 2:0.28999999 3:0.115 4:0.114 5:0.169 6:0.116 7:0.171 8:4.0830002 9:-2.0699999 10:-0.26300001 11:-0.94099998 12:2.3840001 13:1.15 #
2 1:0.676 2:0.36899999 3:0.057999998 4:0.056000002 5:0.089000002 6:0.059999999 7:0.12899999 8:2.471 9:-1.478 10:-0.36399999 11:-0.99800003 12:2.74 13:0 #
2 1:0.57099998 2:0.336 3:0.021 4:0.028999999 5:0.093000002 6:0.057999998 7:0.233 8:2.714 9:-1.415 10:-0.243 11:-1 12:2.3940001 13:0 #
-2 1:0.66900003 2:0.40000001 3:0.389 4:0.59200001 5:0.52100003 6:0.17299999 7:0.078000002 8:2.1110001 9:-2.0090001 10:-0.347 11:-0.88499999 12:2.164 13:0 #
-2 1:0.722 2:0.20200001 3:0.061000001 4:0.12899999 5:0.171 6:0.108 7:0.17399999 8:2.5239999 9:-1.335 10:-0.54299998 11:-0.80699998 12:2.4579999 13:0.015 #
-2 1:0.76300001 2:-0.048 3:0.027000001 4:0.037 5:0.056000002 6:0.012 7:0.75 8:1.3329999 9:0 10:-0.778 11:0 12:2.401 13:0.146 #
-2 1:0.66100001 2:0.32600001 3:0.1 4:0.126 5:0.093999997 6:0.066 7:0.056000002 8:2.5369999 9:-1.566 10:-0.359 11:-0.92900002 12:2.9849999 13:0 #
2 1:0.73799998 2:-0.105 3:0.085000001 4:0.078000002 5:0.117 6:0.096000001 7:0.17900001 8:2.2 9:-1.678 10:-0.49000001 11:-0.93300003 12:2.45 13:1.352 #
-2 1:0.74699998 2:0.31299999 3:0.204 4:0.229 5:0.287 6:0.17399999 7:0.13 8:3 9:-1.949 10:-0.28099999 11:-0.98199999 12:2.0610001 13:0.85799998 #
-2 1:0.72000003 2:0.088 3:0.101 4:0.19400001 5:0.294 6:0.211 7:0.13 8:2.286 9:-1 10:-0.301 11:-1 12:2.076 13:0.84100002 #
2 1:0.58999997 2:0.28099999 3:0.046999998 4:0.037999999 5:0.059 6:0.057 7:0.124 8:3.8 9:-1.904 10:-0.28099999 11:-0.99900001 12:2.7750001 13:0.0070000002 #
-2 1:0.76300001 2:0.072999999 3:0.025 4:0.021 5:0.046 6:0.030999999 7:0.833 8:5.1999998 9:0.171 10:-0.88499999 11:0.149 12:2.382 13:0.0040000002 #
-2 1:0.764 2:0.27399999 3:0.044 4:0.101 5:0.139 6:0.074000001 7:0.19599999 8:3.1819999 9:-1.876 10:-0.30500001 11:-0.91600001 12:2.375 13:0.039999999 #
-2 1:0.625 2:-0.48899999 3:0.045000002 4:0.041999999 5:0.072999999 6:0.048 7:0.18799999 8:3.2219999 9:-2.2119999 10:-0.234 11:-0.99599999 12:2.641 13:0.0040000002 #
2 1:0.722 2:-0.079000004 3:0.456 4:0.52999997 5:0.73500001 6:0.34599999 7:0.189 8:1.941 9:-1.47 10:-0.472 11:-0.91900003 12:1.6900001 13:0.161 #
2 1:0.81 2:0.1 3:0.107 4:0.103 5:0.13500001 6:0.111 7:0.133 8:2.1760001 9:-1.585 10:-0.33500001 11:-0.97799999 12:2.533 13:1.402 #
-2 1:0.64399999 2:-0.043000001 3:0.155 4:0.23800001 5:0.23100001 6:0.055 7:0.154 8:2 9:-1.7920001 10:-0.30500001 11:-0.93199998 12:2.2279999 13:0.95099998 #
2 1:0.78200001 2:0.51300001 3:0.017000001 4:0.017000001 5:0.028999999 6:0.017000001 7:0.417 8:4.1999998 9:-0.41499999 10:-0.398 11:-1 12:2.6889999 13:0.016000001 #
2 1:0.56900001 2:0.228 3:0.044 4:0.039000001 5:0.057999998 6:0.050000001 7:0.148 8:3.4619999 9:-1.904 10:-0.259 11:-1 12:2.777 13:0.001 #
-2 1:0.63700002 2:0.145 3:0.068000004 4:0.093000002 5:0.079000004 6:0.039000001 7:0.175 8:2.1429999 9:-1.908 10:-0.354 11:-0.95499998 12:2.6459999 13:1.426 #
-2 1:0.676 2:0.15700001 3:0.154 4:0.168 5:0.19400001 6:0.112 7:0.133 8:1.808 9:-1.364 10:-0.47499999 11:-0.97600001 12:2.4530001 13:0.54500002 #
-2 1:0.63700002 2:0.373 3:0.029999999 4:0.041000001 5:0.052000001 6:0.017999999 7:0.22499999 8:2.1110001 9:-1.955 10:-0.271 11:-0.98900002 12:2.7119999 13:0.059 #
2 1:0.60000002 2:0.60100001 3:0.055 4:0.035 5:0.117 6:0.083999999 7:0.5 8:5 9:-2 10:-0.176 11:-1 12:2.188 13:0.011 #
2 1:0.81900001 2:-0.354 3:0.108 4:0.090999998 5:0.228 6:0.13 7:0.44400001 8:3.5 9:0.75700003 10:-1.353 11:0.671 12:2.0569999 13:0.015 #
-2 1:0.79699999 2:0.51800001 3:0.037999999 4:0.028999999 5:0.088 6:0.052000001 7:0.25 8:5 9:-1 10:0.30000001 11:0 12:2.4360001 13:0.016000001 #
-2 1:0.73799998 2:0.50700003 3:0.079999998 4:0.068999998 5:0.103 6:0.093000002 7:0.21699999 8:5 9:-1.161 10:-0.43099999 11:-0.99699998 12:2.4790001 13:1.251 #
-2 1:0.76200002 2:0.65799999 3:0.055 4:0.045000002 5:0.086999997 6:0.068000004 7:0.30000001 8:4.2220001 9:-1.4910001 10:-0.454 11:-0.977 12:2.3399999 13:0.02 #
2 1:0.662 2:0.192 3:0.107 4:0.112 5:0.154 6:0.101 7:0.107 8:2.6670001 9:-2.234 10:-0.292 11:-0.82599998 12:2.493 13:0.73900002 #
-2 1:0.61699998 2:-0.28400001 3:0.0099999998 4:0.028000001 5:0.067000002 6:0.0099999998 7:1 8:1 9:-1 10:0.30000001 11:0 12:2.017 13:0.033 #
-2 1:0.72799999 2:0.29699999 3:0.033 4:0.035 5:0.048 6:0.030999999 7:0.28 8:3.286 9:-1.775 10:-0.30399999 11:-1 12:2.747 13:0.052999999 #
-2 1:0.74800003 2:0.205 3:0.114 4:0.14 5:0.176 6:0.085000001 7:0.156 8:3 9:-2.266 10:-0.22 11:-0.98100001 12:2.4460001 13:0.63999999 #
2 1:0.773 2:0.206 3:0.16500001 4:0.176 5:0.289 6:0.15099999 7:0.186 8:1.692 9:-1.887 10:-0.35299999 11:-0.97100002 12:1.987 13:0.94 #
2 1:0.57700002 2:0.45899999 3:0.039999999 4:0.064999998 5:0.141 6:0.102 7:0.077 8:1.429 9:-2.339 10:-0.211 11:-1 12:2.559 13:0 #
2 1:0.44100001 2:-0.72500002 3:0.015 4:0.016000001 5:0.037999999 6:0.014 7:0.5 8:2.5 9:-1 10:0.30000001 11:0 12:2.6289999 13:0 #
2 1:0.79400003 2:0.44800001 3:0.109 4:0.122 5:0.146 6:0.092 7:0.17299999 8:3.7780001 9:-1.6619999 10:-0.454 11:-0.86900002 12:2.391 13:1.33 #
2 1:0.815 2:0.17 3:0.233 4:0.243 5:0.30599999 6:0.221 7:0.192 8:3.2 9:-0.91399997 10:-0.54900002 11:-0.81400001 12:1.9910001 13:0.94400001 #
-2 1:0.71899998 2:-0.40200001 3:0.121 4:0.13699999 5:0.13699999 6:0.102 7:0.171 8:2.7780001 9:-1.654 10:-0.48699999 11:-0.93300003 12:2.497 13:1.483 #
2 1:0.59299999 2:0.26300001 3:0.101 4:0.114 5:0.155 6:0.088 7:0.22400001 8:1.818 9:0.41499999 10:-0.56400001 11:1 12:2.286 13:0.30399999 #
2 1:0.57300001 2:-0.40599999 3:0.029999999 4:0.030999999 5:0.050999999 6:0.028000001 7:0.22400001 8:2.727 9:0.41499999 10:-0.56400001 11:1 12:2.74 13:0 #
2 1:0.43000001 2:0.14300001 3:0.011 4:0.0099999998 5:0.046 6:0.013 7:1 8:1 9:-1 10:0.30000001 11:0 12:2.5090001 13:0.003 #
-2 1:0.38999999 2:0.472 3:0.003 4:0.0040000002 5:0.0049999999 6:0.0020000001 7:1 8:2 9:-1 10:0.30000001 11:0 12:2.8859999 13:0 #
-2 1:0.80900002 2:-0.29800001 3:0.015 4:0.039999999 5:0.057999998 6:0.011 7:0.5 8:1.75 9:-1.465 10:-0.204 11:-1 12:2.3499999 13:0 #
2 1:0.70200002 2:0.236 3:0.101 4:0.088 5:0.17900001 6:0.117 7:0.236 8:3.2309999 9:-1.596 10:-0.41999999 11:-0.99299997 12:2.3800001 13:1.279 #
2 1:0.745 2:-0.46200001 3:0.086999997 4:0.085000001 5:0.108 6:0.090999998 7:0.152 8:2.7060001 9:-1.631 10:-0.428 11:-0.92400002 12:2.5680001 13:0.68800002 #
2 1:0.65200001 2:0.033 3:0.068000004 4:0.059999999 5:0.079999998 6:0.078000002 7:0.175 8:2.3570001 9:-1.387 10:-0.39399999 11:-0.93699998 12:2.5899999 13:0.49700001 #
2 1:0.634 2:0.229 3:0.013 4:0.027000001 5:0.048 6:0.026000001 7:0.2 8:2.4289999 9:-2.322 10:-0.146 11:-1 12:2.7309999 13:0 #
-2 1:0.76300001 2:-0.105 3:0.18700001 4:0.273 5:0.25299999 6:0.090000004 7:0.133 8:3.4170001 9:-1.619 10:-0.509 11:-0.76800001 12:2.23 13:0.89999998 #
2 1:0.77600002 2:-0.226 3:0.026000001 4:0.021 5:0.057 6:0.033 7:0.55599999 8:1.8 9:-0.63099998 10:-0.398 11:-1 12:2.5469999 13:0 #
-2 1:0.71700001 2:-0.146 3:0.114 4:0.14300001 5:0.13 6:0.078000002 7:0.11 8:2.8 9:-2.2709999 10:-0.285 11:-0.94099998 12:2.585 13:1.1059999 #
-2 1:0.69599998 2:0.113 3:0.081 4:0.155 5:0.23899999 6:0.171 7:0.18799999 8:2.7780001 9:-2.2119999 10:-0.234 11:-0.99599999 12:2.0680001 13:0.903 #
-2 1:0.829 2:-0.26300001 3:0.121 4:0.185 5:0.15800001 6:0.039999999 7:0.259 8:2.714 9:-1.3200001 10:-0.55400002 11:-0.82999998 12:2.217 13:1.033 #
2 1:0.70499998 2:0.65399998 3:0.021 4:0.0099999998 5:0.094999999 6:0.037999999 7:0.44400001 8:2.25 9:-1 10:-0.301 11:-1 12:1.978 13:0.0089999996 #
2 1:0.51599997 2:0.35299999 3:0.024 4:0.0099999998 5:0.068000004 6:0.045000002 7:0.44400001 8:2.25 9:-1 10:-0.301 11:-1 12:2.2460001 13:0 #
2 1:0.75999999 2:0.34400001 3:0.115 4:0.13 5:0.155 6:0.096000001 7:0.18799999 8:3.2780001 9:-1.65 10:-0.51499999 11:-0.78299999 12:2.3770001 13:1.3150001 #
-2 1:0.37 2:0.66900003 3:0.0070000002 4:0.011 5:0.018999999 6:0.001 7:0.44400001 8:3 9:-1 10:-0.301 11:-1 12:2.921 13:0 #
-2 1:0.65799999 2:0.514 3:0.035999998 4:0.039999999 5:0.079000004 6:0.028999999 7:0.30000001 8:2.5 9:-1 10:-0.301 11:-1 12:2.405 13:0.0070000002 #
-2 1:0.73900002 2:0.213 3:0.059999999 4:0.079999998 5:0.086000003 6:0.035999998 7:0.20299999 8:2 9:-1.018 10:-0.47299999 11:-0.99299997 12:2.513 13:0.096000001 #
2 1:0.70499998 2:-0.33899999 3:0.086999997 4:0.089000002 5:0.098999999 6:0.085000001 7:0.11 8:3.345 9:-1.776 10:-0.44100001 11:-0.94499999 12:2.753 13:1.484 #
2 1:0.75599998 2:0.2 3:0.097000003 4:0.081 5:0.15899999 6:0.117 7:0.37 8:3.8 9:-1.329 10:-0.54100001 11:-0.815 12:2.378 13:1.24 #
2 1:0.755 2:0.303 3:0.094999999 4:0.085000001 5:0.168 6:0.107 7:0.236 8:3.0769999 9:-1.444 10:-0.50599998 11:-0.85000002 12:2.3770001 13:1.275 #
-2 1:0.73199999 2:-0.034000002 3:0.12 4:0.12899999 5:0.148 6:0.108 7:0.148 8:4.25 9:-1.539 10:-0.36399999 11:-0.93000001 12:2.3069999 13:1.202 #
-2 1:0.73199999 2:0.57499999 3:0.056000002 4:0.057 5:0.074000001 6:0.056000002 7:0.214 8:4.0830002 9:-1.581 10:-0.40700001 11:-0.78200001 12:2.622 13:0.977 #
2 1:0.72600001 2:0.12800001 3:0.0040000002 4:0.0099999998 5:0.016000001 6:0.0070000002 7:0.5 8:2 9:-1 10:-0.301 11:-1 12:2.632 13:0.0020000001 #
-2 1:0.755 2:0.164 3:0.068999998 4:0.154 5:0.17200001 6:0.116 7:0.071999997 8:3.5 9:-2.6059999 10:-0.243 11:-0.917 12:2.6570001 13:0.66299999 #
-2 1:0.74900001 2:0.032000002 3:0.40900001 4:0.458 5:0.708 6:0.333 7:0.19400001 8:2.4289999 9:-0.98400003 10:-0.48199999 11:-0.99400002 12:1.681 13:0.109 #
-2 1:0.68400002 2:0.12800001 3:0.13699999 4:0.17399999 5:0.222 6:0.089000002 7:0.082000002 8:2.441 9:-1.023 10:-0.48199999 11:-0.90399998 12:2.6170001 13:0 #
2 1:0.64499998 2:0.53899997 3:0.052999999 4:0.050999999 5:0.113 6:0.056000002 7:0.333 8:2.75 9:-2.585 10:-0.125 11:-1 12:2.3099999 13:0 #
-2 1:0.55800003 2:0.34 3:0.082999997 4:0.093999997 5:0.107 6:0.068000004 7:0.078000002 8:3.0829999 9:-2.661 10:-0.19 11:-0.90200001 12:2.862 13:0.001 #
-2 1:0.74800003 2:0.278 3:0.116 4:0.142 5:0.176 6:0.088 7:0.148 8:3.615 9:-2.2320001 10:-0.23199999 11:-0.95599997 12:2.4460001 13:0.63999999 #
2 1:0.76099998 2:-0.0080000004 3:0.42699999 4:0.53399998 5:0.447 6:0.29699999 7:0.028999999 8:2.9389999 9:-1.984 10:-0.38 11:-0.92199999 12:2.595 13:0.017999999 #
-2 1:0.69499999 2:0.185 3:0.103 4:0.123 5:0.162 6:0.078000002 7:0.186 8:2.5380001 9:-1.257 10:-0.42399999 11:-0.93099999 12:2.4419999 13:0.64700001 #
2 1:0.60699999 2:0.40099999 3:0.059999999 4:0.124 5:0.16599999 6:0.117 7:0.079000004 8:2.2 9:-0.60799998 10:-0.58600003 11:-0.96899998 12:2.7520001 13:0.65200001 #
2 1:0.78799999 2:0.075999998 3:0.068000004 4:0.14399999 5:0.18700001 6:0.127 7:0.145 8:2.5880001 9:-2.062 10:-0.33000001 11:-0.93400002 12:2.391 13:0.92699999 #
-2 1:0.67900002 2:0.233 3:0.31600001 4:0.38699999 5:0.39899999 6:0.234 7:0.046999998 8:2.0220001 9:-2.483 10:-0.22 11:-0.94599998 12:2.4590001 13:0.0060000001 #
2 1:0.68400002 2:0.12800001 3:0.022 4:0.016000001 5:0.045000002 6:0.029999999 7:0.333 8:2 9:-1.585 10:-0.222 11:-1 12:2.4909999 13:0.039000001 #
2 1:0.52700001 2:-0.021 3:0.096000001 4:0.083999999 5:0.178 6:0.114 7:0.30000001 8:2.5 9:-1.883 10:-0.30899999 11:-0.93099999 12:2.2409999 13:0 #
-2 1:0.74400002 2:0.176 3:0.206 4:0.259 5:0.28200001 6:0.141 7:0.048999999 8:2.1630001 9:-2.0139999 10:-0.31799999 11:-0.96499997 12:2.6800001 13:0.31999999 #
2 1:0.71200001 2:0.50300002 3:0.081 4:0.068000004 5:0.121 6:0.097999997 7:0.126 8:3.28 9:-1.666 10:-0.479 11:-0.93199998 12:2.7160001 13:0.50400001 #
-2 1:0.75700003 2:0.49399999 3:0.039999999 4:0.030999999 5:0.043000001 6:0.050000001 7:0.15700001 8:3.789 9:-1.573 10:-0.47600001 11:-0.833 12:2.974 13:1.0089999 #
2 1:0.77200001 2:0.32300001 3:0.303 4:0.34200001 5:0.33199999 6:0.255 7:0.032000002 8:2.592 9:-2.3169999 10:-0.30899999 11:-0.93199998 12:2.7409999 13:0.077 #
2 1:0.801 2:0.236 3:0.111 4:0.12800001 5:0.191 6:0.089000002 7:0.28099999 8:2.1110001 9:-1.5 10:-0.34400001 11:-0.99900001 12:2.0610001 13:1.021 #
-2 1:0.71799999 2:0.228 3:0.12899999 4:0.13699999 5:0.178 6:0.114 7:0.154 8:2.6670001 9:-1.374 10:-0.51099998 11:-0.87800002 12:2.4579999 13:0.015 #
-2 1:0.75400001 2:-0.30399999 3:0.067000002 4:0.16500001 5:0.252 6:0.090000004 7:0.22400001 8:2.1819999 9:-1.7130001 10:-0.39399999 11:-0.97899997 12:2.1429999 13:0.030999999 #
-2 1:0.90499997 2:-0.16 3:0.016000001 4:0.022 5:0.021 6:0.0080000004 7:1 8:1.6 9:-1 10:-0.301 11:-1 12:2.641 13:0.47999999 #
-2 1:0.722 2:-0.083999999 3:0.44800001 4:0.51499999 5:0.72500002 6:0.347 7:0.155 8:1.882 9:-1.126 10:-0.45199999 11:-0.94800001 12:1.7079999 13:0.155 #
2 1:0.72399998 2:0.59200001 3:0.13600001 4:0.145 5:0.13600001 6:0.125 7:0.074000001 8:2.622 9:-1.8150001 10:-0.37799999 11:-0.94800001 12:2.8340001 13:0.667 #
2 1:0.80800003 2:0.33700001 3:0.15000001 4:0.18799999 5:0.248 6:0.102 7:0.071000002 8:3.0420001 9:-1.789 10:-0.42199999 11:-0.95499998 12:2.6110001 13:0.034000002 #
2 1:0.491 2:0.061000001 3:0.017000001 4:0.022 5:0.044 6:0.011 7:0.2 8:1.4 9:-1 10:0.30000001 11:0 12:2.7390001 13:0 #
2 1:0.79699999 2:-0.003 3:0.28299999 4:0.26899999 5:0.44100001 6:0.29899999 7:0.169 8:2.846 9:-1.626 10:-0.33199999 11:-1 12:1.771 13:0.69 #
2 1:0.77399999 2:-0.36399999 3:0.016000001 4:0.022 5:0.055 6:0.046999998 7:0.43799999 8:2.714 9:-1.179 10:-0.56400001 11:-0.88099998 12:2.4649999 13:0 #
-2 1:0.764 2:0.537 3:0.039000001 4:0.030999999 5:0.044 6:0.050000001 7:0.15700001 8:4 9:-1.573 10:-0.47600001 11:-0.833 12:2.974 13:1.0089999 #
-2 1:0.741 2:0.44299999 3:0.037999999 4:0.032000002 5:0.048 6:0.048 7:0.16 8:3.3080001 9:-1.626 10:-0.33199999 11:-1 12:2.8080001 13:0.176 #
-2 1:0.71600002 2:0.616 3:0.078000002 4:0.081 5:0.127 6:0.072999999 7:0.19 8:3.1670001 9:-1.848 10:-0.324 11:-0.87800002 12:2.375 13:0.237 #
2 1:0.75800002 2:-0.041999999 3:0.42899999 4:0.53899997 5:0.447 6:0.29699999 7:0.028999999 8:2.8940001 9:-2.046 10:-0.37 11:-0.917 12:2.595 13:0.017999999 #
-2 1:0.72799999 2:0.412 3:0.12899999 4:0.13600001 5:0.19599999 6:0.121 7:0.103 8:3.05 9:-2.3840001 10:-0.23999999 11:-0.87900001 12:2.4560001 13:0.62300003 #
-2 1:0.72500002 2:0.259 3:0.066 4:0.142 5:0.171 6:0.118 7:0.112 8:3.263 9:-2.263 10:-0.26800001 11:-0.861 12:2.4489999 13:0.66500002 #
2 1:0.70200002 2:0.43200001 3:0.022 4:0.0089999996 5:0.048999999 6:0.041000001 7:0.31200001 8:3 9:-1.585 10:-0.222 11:-1 12:2.516 13:0.026000001 #
2 1:0.616 2:0.169 3:0.032000002 4:0.029999999 5:0.048 6:0.035 7:0.214 8:2.7780001 9:-1.955 10:-0.271 11:-0.98900002 12:2.8540001 13:0.198 #
-2 1:0.81800002 2:0.13699999 3:0.36700001 4:0.31099999 5:1 6:0.48500001 7:0.122 8:2.8180001 9:-2.415 10:-0.138 11:-1 12:1.964 13:0 #
-2 1:0.81199998 2:-0.15700001 3:0.079999998 4:0.163 5:0.185 6:0.15800001 7:0.123 8:2.161 9:-1.722 10:-0.461 11:-0.94599998 12:2.572 13:1.442 #
2 1:0.60299999 2:0.21699999 3:0.033 4:0.030999999 5:0.048 6:0.035999998 7:0.214 8:2.7780001 9:-1.955 10:-0.271 11:-0.98900002 12:2.8540001 13:0.198 #
2 1:0.54900002 2:0.389 3:0.052000001 4:0.039000001 5:0.083999999 6:0.071000002 7:0.2 8:2.286 9:-2.1830001 10:-0.105 11:-1 12:2.5369999 13:0.0049999999 #
-2 1:0.66100001 2:0.028999999 3:0.175 4:0.2 5:0.17200001 6:0.142 7:0.054000001 8:2.8 9:-2.095 10:-0.384 11:-0.949 12:2.809 13:0 #
2 1:0.81099999 2:0.38299999 3:0.27399999 4:0.26300001 5:0.49200001 6:0.29100001 7:0.182 8:1.929 9:-1.729 10:-0.38600001 11:-0.99299997 12:1.813 13:0.69099998 #
-2 1:0.63300002 2:0.301 3:0.018999999 4:0.048 5:0.055 6:0.025 7:0.19 8:2.0829999 9:-1.661 10:-0.31400001 11:-0.97500002 12:2.721 13:0.13699999 #
-2 1:0.69 2:0.42300001 3:0.12 4:0.145 5:0.147 6:0.082000002 7:0.043000001 8:2.362 9:-2.0250001 10:-0.27200001 11:-0.93599999 12:2.9679999 13:0 #
-2 1:0.62800002 2:0.55699998 3:0.025 4:0.033 5:0.048999999 6:0.016000001 7:0.2 8:2.25 9:-1.737 10:-0.204 11:-1 12:2.8369999 13:0.001 #
2 1:0.79000002 2:0.69300002 3:0.25799999 4:0.29100001 5:0.47799999 6:0.21699999 7:0.183 8:3.1819999 9:-1.518 10:-0.51499999 11:-0.94800001 12:1.839 13:0.634 #
2 1:0.78200001 2:0.509 3:0.063000001 4:0.169 5:0.182 6:0.079000004 7:0.17299999 8:2.684 9:-0.54500002 10:-0.61900002 11:-0.69099998 12:2.3299999 13:0.0080000004 #
-2 1:0.815 2:0.16500001 3:0.097999997 4:0.114 5:0.119 6:0.075000003 7:0.125 8:2.8099999 9:-1.627 10:-0.41600001 11:-0.977 12:2.595 13:0.338 #
-2 1:0.68400002 2:0.21799999 3:0.12899999 4:0.14 5:0.178 6:0.11 7:0.146 8:2.4289999 9:-1.564 10:-0.43099999 11:-0.958 12:2.4579999 13:0.015 #
2 1:0.73699999 2:-0.433 3:0.02 4:0.011 5:0.030999999 6:0.035 7:0.55599999 8:6 9:-0.63099998 10:-0.398 11:-1 12:2.4649999 13:0 #
2 1:0.736 2:0.35699999 3:0.26699999 4:0.317 5:0.37099999 6:0.206 7:0.048999999 8:2.733 9:-2.277 10:-0.31600001 11:-0.96499997 12:2.5510001 13:0.0049999999 #
-2 1:0.79400003 2:0.023 3:0.141 4:0.167 5:0.178 6:0.106 7:0.161 8:3.391 9:-0.199 10:-0.71700001 11:-0.43200001 12:2.2809999 13:0.80299997 #
2 1:0.78100002 2:0.226 3:0.30000001 4:0.33500001 5:0.34200001 6:0.25600001 7:0.033 8:2.7190001 9:-2.2739999 10:-0.31400001 11:-0.93800002 12:2.743 13:0.074000001 #
-2 1:0.73199999 2:0.414 3:0.33500001 4:0.44999999 5:0.42300001 6:0.19 7:0.044 8:1.928 9:-2.095 10:-0.33000001 11:-0.87099999 12:2.513 13:0.011 #
2 1:0.71899998 2:0.40000001 3:0.118 4:0.112 5:0.139 6:0.12800001 7:0.17 8:3.76 9:-1.357 10:-0.597 11:-0.875 12:2.556 13:1.426 #
2 1:0.64300001 2:0.071000002 3:0.039999999 4:0.037999999 5:0.078000002 6:0.041999999 7:0.184 8:2.2219999 9:-1.322 10:-0.255 11:-1 12:2.641 13:0 #
-2 1:0.755 2:0.27500001 3:0.057999998 4:0.142 5:0.18700001 6:0.086000003 7:0.156 8:2.9170001 9:-1 10:-0.301 11:-1 12:2.444 13:0.648 #
2 1:0.85500002 2:0.29699999 3:0.234 4:0.23800001 5:0.377 6:0.23 7:0.25999999 8:3.2 9:-1.075 10:-0.68800002 11:-0.89499998 12:1.839 13:0.67699999 #
-2 1:0.75199997 2:-0.20299999 3:0.125 4:0.149 5:0.145 6:0.097000003 7:0.18799999 8:4.3330002 9:-1.525 10:-0.46700001 11:-0.68400002 12:2.286 13:1.219 #
-2 1:0.48100001 2:-0.30199999 3:0.018999999 4:0.013 5:0.027000001 6:0.029999999 7:1 8:5 9:-1 10:-0.301 11:-1 12:2.4649999 13:0 #
2 1:0.76499999 2:0.33199999 3:0.29899999 4:0.338 5:0.34099999 6:0.25099999 7:0.029999999 8:2.6359999 9:-2.457 10:-0.266 11:-0.94099998 12:2.7420001 13:0.072999999 #
2 1:0.73400003 2:0.011 3:0.11 4:0.114 5:0.207 6:0.104 7:0.175 8:2.9089999 9:-1.734 10:-0.33199999 11:-0.93099999 12:2.336 13:1.018 #
-2 1:0.63300002 2:-0.025 3:0.086999997 4:0.113 5:0.098999999 6:0.052000001 7:0.189 8:2.1760001 9:-1.428 10:-0.48800001 11:-0.90399998 12:2.585 13:1.177 #
-2 1:0.62199998 2:0.398 3:0.061999999 4:0.064999998 5:0.134 6:0.057999998 7:0.30000001 8:3 9:-1 10:-0.477 11:-1 12:2.2149999 13:0 #
2 1:0.45500001 2:0.30500001 3:0.02 4:0.014 5:0.026000001 6:0.026000001 7:0.13 8:2.385 9:-1.222 10:-0.26899999 11:-1 12:3.1489999 13:0.003 #
2 1:0.81599998 2:0.52899998 3:0.017999999 4:0.017000001 5:0.022 6:0.018999999 7:0.204 8:3.0999999 9:-1.557 10:-0.36300001 11:-0.93099999 12:3.1440001 13:0 #
-2 1:0.73100001 2:0.391 3:0.113 4:0.12800001 5:0.155 6:0.093000002 7:0.182 8:3.5710001 9:-1.387 10:-0.39399999 11:-0.93699998 12:2.464 13:0.55900002 #
-2 1:0.764 2:0.528 3:0.104 4:0.126 5:0.116 6:0.074000001 7:0.096000001 8:3.1289999 9:-1.9119999 10:-0.42699999 11:-0.92400002 12:2.776 13:0.001 #
2 1:0.792 2:0.098999999 3:0.086000003 4:0.18700001 5:0.228 6:0.155 7:0.138 8:2.3329999 9:-1.72 10:-0.377 11:-0.99699998 12:2.391 13:0.82499999 #
2 1:0.74599999 2:0.53200001 3:0.163 4:0.131 5:0.20299999 6:0.20100001 7:0.109 8:3.757 9:-1.488 10:-0.52100003 11:-0.949 12:2.477 13:0.447 #
-2 1:0.68800002 2:0.168 3:0.101 4:0.211 5:0.294 6:0.192 7:0.152 8:1.882 9:-2.062 10:-0.33000001 11:-0.93400002 12:2.076 13:0.84100002 #
-2 1:0.67000002 2:0.077 3:0.101 4:0.124 5:0.155 6:0.074000001 7:0.186 8:2.154 9:-1.257 10:-0.42399999 11:-0.93099999 12:2.4419999 13:0.64700001 #
2 1:0.77700001 2:0.301 3:0.126 4:0.13600001 5:0.19499999 6:0.114 7:0.090000004 8:3.8239999 9:-1.539 10:-0.44600001 11:-0.94099998 12:2.5669999 13:0.46599999 #
2 1:0.68900001 2:0.15000001 3:0.050999999 4:0.046 5:0.077 6:0.057999998 7:0.15899999 8:3.1429999 9:-1.7920001 10:-0.28799999 11:-0.96899998 12:2.7360001 13:0.20999999 #
-2 1:0.79900002 2:0.37900001 3:0.057999998 4:0.055 5:0.105 6:0.061999999 7:0.222 8:2.375 9:-1.465 10:-0.204 11:-1 12:2.5090001 13:0.18799999 #
2 1:0.69 2:-0.41299999 3:0.103 4:0.115 5:0.132 6:0.086999997 7:0.118 8:1.8329999 9:-1.419 10:-0.53799999 11:-0.77600002 12:2.5610001 13:0.69599998 #
2 1:0.75 2:0.17 3:0.083999999 4:0.092 5:0.123 6:0.072999999 7:0.108 8:2.4619999 9:-1.783 10:-0.398 11:-0.89600003 12:2.5450001 13:0.257 #
-2 1:0.76200002 2:0.19499999 3:0.111 4:0.107 5:0.1 6:0.115 7:0.044 8:3.803 9:-1.9630001 10:-0.39199999 11:-0.88499999 12:3.1760001 13:0.0060000001 #
-2 1:0.80800003 2:0.101 3:0.024 4:0.026000001 5:0.048999999 6:0.02 7:0.5 8:2.3329999 9:-2 10:-0.176 11:-1 12:2.4200001 13:0.023 #
2 1:0.639 2:0.63300002 3:0.041999999 4:0.034000002 5:0.090999998 6:0.050000001 7:0.25 8:4.75 9:-1 10:0.30000001 11:0 12:2.188 13:0.011 #
-2 1:0.76800001 2:0.37099999 3:0.026000001 4:0.026000001 5:0.037999999 6:0.026000001 7:0.35699999 8:4.0999999 9:-0.49399999 10:-0.62199998 11:-0.93099999 12:2.697 13:0.035 #
2 1:0.63499999 2:0.528 3:0.044 4:0.039999999 5:0.075000003 6:0.050000001 7:0.13600001 8:2.267 9:-1.557 10:-0.36300001 11:-0.93099999 12:2.737 13:0 #
-2 1:0.72500002 2:0.067000002 3:0.093999997 4:0.191 5:0.271 6:0.183 7:0.146 8:2.286 9:-2.2030001 10:-0.245 11:-0.93000001 12:2.072 13:0.87099999 #
-2 1:0.74000001 2:0.352 3:0.30399999 4:0.377 5:0.317 6:0.212 7:0.048999999 8:2.4920001 9:-2.46 10:-0.27000001 11:-0.917 12:2.5669999 13:0.99400002 #
-2 1:0.71399999 2:0.132 3:0.122 4:0.138 5:0.16599999 6:0.104 7:0.105 8:2.9330001 9:-2.6340001 10:-0.167 11:-0.99299997 12:2.579 13:0.113 #
2 1:0.745 2:0.27500001 3:0.131 4:0.13699999 5:0.20299999 6:0.124 7:0.106 8:3.529 9:-1.154 10:-0.55900002 11:-0.94700003 12:2.5669999 13:0.46599999 #
2 1:0.792 2:0.21699999 3:0.125 4:0.131 5:0.185 6:0.117 7:0.097999997 8:3.7709999 9:-1.24 10:-0.52899998 11:-0.963 12:2.566 13:0.465 #
-2 1:0.77899998 2:0.35600001 3:0.048 4:0.055 5:0.082000002 6:0.037999999 7:0.229 8:2.6359999 9:-1.234 10:-0.41999999 11:-0.98900002 12:2.5650001 13:0.48199999 #
2 1:0.66299999 2:0.40200001 3:0.061000001 4:0.048 5:0.124 6:0.077 7:0.125 8:3 9:-2.579 10:-0.071000002 11:-1 12:2.5799999 13:0 #
2 1:0.77999997 2:0.068000004 3:0.056000002 4:0.054000001 5:0.092 6:0.057999998 7:0.25 8:2.4000001 9:-3 10:-0.097000003 11:-1 12:2.556 13:1.146 #
-2 1:0.72100002 2:0.25400001 3:0.118 4:0.264 5:0.197 6:0.2 7:0.024 8:3.053 9:-2.5799999 10:-0.244 11:-0.921 12:3.0420001 13:0 #
2 1:0.75800002 2:-0.021 3:0.035 4:0.072999999 5:0.090999998 6:0.066 7:0.148 8:2.5829999 9:-1 10:-0.301 11:-1 12:2.5439999 13:0.61000001 #
2 1:0.62 2:0.147 3:0.012 4:0.012 5:0.02 6:0.013 7:0.667 8:2.5 9:0.58499998 10:-0.602 11:1 12:2.7060001 13:0 #
2 1:0.829 2:0.245 3:0.23100001 4:0.23999999 5:0.30599999 6:0.222 7:0.183 8:2.684 9:-1.705 10:-0.49000001 11:-0.90100002 12:1.9910001 13:0.94400001 #
-2 1:0.62699997 2:-0.1 3:0.013 4:0.028000001 5:0.037999999 6:0.024 7:0.23199999 8:2.2309999 9:-1.367 10:-0.50999999 11:-0.89300001 12:3.0220001 13:0.42500001 #
-2 1:0.67400002 2:0.164 3:0.0089999996 4:0.011 5:0.02 6:0.0049999999 7:1 8:2 9:-1 10:0.30000001 11:0 12:2.2969999 13:0 #
2 1:0.77399999 2:0.23800001 3:0.11 4:0.138 5:0.146 6:0.068999998 7:0.105 8:2.5940001 9:-1.748 10:-0.43700001 11:-0.96200001 12:2.598 13:0.25299999 #
2 1:0.69499999 2:0.16 3:0.331 4:0.449 5:0.37900001 6:0.191 7:0.092 8:1.8890001 9:-1.766 10:-0.46599999 11:-0.972 12:2.207 13:0.98799998 #
-1.9999819201056254769355291500688 1:0.75800002 2:0.182 3:0.024 4:0.024 5:0.044 6:0.024 7:0.31999999 8:2.125 9:0.58499998 10:-0.602 11:1 12:2.675 13:0.0020000001 #
-2 1:0.072999999 2:0.081 3:0.0049999999 4:0.0040000002 5:0.025 6:0.0080000004 7:1 8:1 9:-1 10:0.30000001 11:0 12:2.556 13:0.0049999999 #
2 1:0.51200002 2:-0.509 3:0.033 4:0.022 5:0.064000003 6:0.052000001 7:0.5 8:3 9:-1.465 10:-0.204 11:-1 12:2.447 13:0 #
2 1:0.75199997 2:0.23100001 3:0.116 4:0.127 5:0.198 6:0.104 7:0.105 8:3.312 9:-1.3380001 10:-0.51800001 11:-0.88599998 12:2.5669999 13:0.46599999 #
-2 1:0.71100003 2:0.37200001 3:0.127 4:0.168 5:0.14300001 6:0.119 7:0.055 8:2.7390001 9:-2.0869999 10:-0.296 11:-0.94499999 12:2.882 13:0.023 #
-2 1:0.69199997 2:0.079000004 3:0.083999999 4:0.086999997 5:0.12899999 6:0.079999998 7:0.154 8:4 9:-1.648 10:-0.43099999 11:-0.91299999 12:2.589 13:0.063000001 #
-2 1:0.82099998 2:0.055 3:0.078000002 4:0.23999999 5:0.237 6:0.046999998 7:0.147 8:2.3329999 9:-1.579 10:-0.45100001 11:-0.89200002 12:2.204 13:0.34200001 #
2 1:0.71499997 2:0.377 3:0.138 4:0.102 5:0.2 6:0.199 7:0.134 8:2.9330001 9:-1.747 10:-0.28400001 11:-0.99599999 12:2.2550001 13:1.23 #
-2 1:0.69499999 2:0.13 3:0.0070000002 4:0.0040000002 5:0.02 6:0.011 7:1 8:6.5 9:-1 10:-0.301 11:-1 12:2.845 13:0 #
-2 1:0.76999998 2:0.093999997 3:0.114 4:0.145 5:0.146 6:0.075000003 7:0.118 8:2.885 9:-1.9069999 10:-0.396 11:-0.96100003 12:2.688 13:0.77499998 #
2 1:0.76099998 2:0.49399999 3:0.131 4:0.123 5:0.182 6:0.141 7:0.193 8:3.059 9:-1.428 10:-0.48800001 11:-0.90399998 12:2.2579999 13:1.1109999 #
-2 1:0.70999998 2:0.22499999 3:0.14399999 4:0.155 5:0.25 6:0.12800001 7:0.115 8:2.7620001 9:-1.7589999 10:-0.366 11:-0.99699998 12:2.2920001 13:0.107 #
2 1:0.68699998 2:0.303 3:0.103 4:0.105 5:0.147 6:0.101 7:0.148 8:3.053 9:-1.9069999 10:-0.40599999 11:-0.95499998 12:2.549 13:1.385 #
-2 1:0.72000003 2:0.186 3:0.107 4:0.112 5:0.156 6:0.1 7:0.12 8:3.444 9:-1.779 10:-0.271 11:-0.991 12:2.556 13:1.332 #
2 1:0.73900002 2:-0.017999999 3:0.0099999998 4:0.025 5:0.033 6:0.017000001 7:0.44400001 8:2.5 9:-1 10:-0.301 11:-1 12:2.6530001 13:0.0040000002 #
-2 1:0.741 2:-0.36300001 3:0.088 4:0.12 5:0.1 6:0.048999999 7:0.167 8:2.4170001 9:-1.85 10:-0.25400001 11:-0.95099998 12:2.533 13:1.52 #
2 1:0.72299999 2:0.108 3:0.1 4:0.067000002 5:0.164 6:0.149 7:0.156 8:2.4289999 9:-1.591 10:-0.34099999 11:-0.98699999 12:2.276 13:0.0049999999 #
2 1:0.41999999 2:0.249 3:0.015 4:0.027000001 5:0.052999999 6:0.034000002 7:0.333 8:2.1670001 9:-1.883 10:-0.30899999 11:-0.93099999 12:2.6589999 13:0 #
2 1:0.74400002 2:0.178 3:0.056000002 4:0.045000002 5:0.066 6:0.071000002 7:0.14399999 8:2.516 9:-1.599 10:-0.56699997 11:-0.889 12:2.849 13:1.8430001 #
2 1:0.727 2:0.025 3:0.068999998 4:0.059 5:0.081 6:0.082999997 7:0.12899999 8:3 9:-1.637 10:-0.56099999 11:-0.87 12:2.852 13:1.698 #
-2 1:0.76499999 2:0.214 3:0.035999998 4:0.103 5:0.124 6:0.029999999 7:0.23800001 8:2.0999999 9:-1.5 10:-0.34799999 11:-0.98199999 12:2.267 13:0.023 #
-2 1:0.72000003 2:0.486 3:0.077 4:0.1 5:0.113 6:0.046999998 7:0.25 8:2.25 9:-1.2970001 10:-0.54400003 11:-0.84100002 12:2.29 13:0.185 #
-2 1:0.861 2:0.36899999 3:0.050000001 4:0.061999999 5:0.07 6:0.035999998 7:0.182 8:2.0710001 9:-1.528 10:-0.454 11:-0.94300002 12:2.6760001 13:0.081 #
2 1:0.71700001 2:0.26499999 3:0.105 4:0.086999997 5:0.168 6:0.12800001 7:0.278 8:3.5 9:-1.234 10:-0.50400001 11:-0.62400001 12:2.3770001 13:1.275 #
-2 1:0.81800002 2:0.51899999 3:0.061999999 4:0.075000003 5:0.075000003 6:0.046999998 7:0.375 8:3.556 9:-1.178 10:-0.55000001 11:-0.94599998 12:2.6029999 13:1.442 #
-2 1:0.83600003 2:0.153 3:0.090000004 4:0.122 5:0.102 6:0.045000002 7:0.244 8:2.947 9:-0.99299997 10:-0.62599999 11:-0.88300002 12:2.4070001 13:1.346 #
2 1:0.70700002 2:0.233 3:0.171 4:0.206 5:0.26199999 6:0.127 7:0.063000001 8:2.3410001 9:-2.115 10:-0.32800001 11:-0.97100002 12:2.6159999 13:0.015 #
2 1:0.74000001 2:0.205 3:0.185 4:0.235 5:0.271 6:0.12 7:0.057 8:2.6040001 9:-2.184 10:-0.31400001 11:-0.87099999 12:2.6010001 13:0.028000001 #
-2 1:0.76800001 2:0.454 3:0.093999997 4:0.113 5:0.148 6:0.068000004 7:0.15000001 8:2.75 9:-1 10:-0.301 11:-1 12:2.348 13:0.47499999 #
-2 1:0.72600001 2:0.37400001 3:0.085000001 4:0.089000002 5:0.131 6:0.079000004 7:0.19599999 8:3.5450001 9:-0.193 10:-0.43900001 11:-1 12:2.299 13:0.066 #
-2 1:0.82599998 2:-0.068999998 3:0.071999997 4:0.184 5:0.191 6:0.082999997 7:0.208 8:2.75 9:-0.60799998 10:-0.58600003 11:-0.96899998 12:2.1819999 13:1.029 #
2 1:0.80900002 2:0.092 3:0.077 4:0.081 5:0.119 6:0.072999999 7:0.139 8:1.9 9:-1.1109999 10:-0.44499999 11:-0.99800003 12:2.598 13:0.949 #
-2 1:0.71700001 2:0.011 3:0.222 4:0.27000001 5:0.22499999 6:0.161 7:0.039000001 8:2.145 9:-2.1129999 10:-0.301 11:-0.94300002 12:2.8269999 13:0.001 #
-2 1:0.74800003 2:0.193 3:0.116 4:0.141 5:0.183 6:0.088 7:0.155 8:3.385 9:-1.8200001 10:-0.30199999 11:-0.98500001 12:2.444 13:0.63800001 #
-2 1:0.69300002 2:-0.142 3:0.035 4:0.072999999 5:0.07 6:0.068000004 7:0.082999997 8:2.25 9:-1.818 10:-0.296 11:-0.99199998 12:3.0580001 13:0 #
-2 1:0.755 2:0.25799999 3:0.046999998 4:0.103 5:0.156 6:0.085000001 7:0.22400001 8:3 9:-1.604 10:-0.38499999 11:-0.824 12:2.375 13:0.0040000002 #
2 1:0.58700001 2:0.075999998 3:0.02 4:0.017999999 5:0.028999999 6:0.021 7:0.28 8:2.8570001 9:-0.58499998 10:-0.368 11:-1 12:2.7909999 13:0.003 #
2 1:0.84500003 2:0.25799999 3:0.228 4:0.235 5:0.37099999 6:0.21799999 7:0.271 8:3.316 9:-0.43900001 10:-0.81999999 11:-0.74299997 12:1.845 13:0.68400002 #
2 1:0.74800003 2:0.59399998 3:0.15800001 4:0.167 5:0.23899999 6:0.147 7:0.094999999 8:2.6210001 9:-1.136 10:-0.47499999 11:-0.80699998 12:2.346 13:0.23199999 #
2 1:0.699 2:-0.36300001 3:0.028999999 4:0.027000001 5:0.030999999 6:0.030999999 7:0.14300001 8:3.1110001 9:-2.8069999 10:-0.109 11:-1 12:2.9360001 13:0.0020000001 #
2 1:0.71899998 2:0.338 3:0.147 4:0.186 5:0.241 6:0.097999997 7:0.071999997 8:2.6830001 9:-0.85299999 10:-0.52600002 11:-0.88499999 12:2.6140001 13:0.023 #
2 1:0.70200002 2:0.206 3:0.192 4:0.23999999 5:0.301 6:0.139 7:0.041000001 8:2.9809999 9:-2.5680001 10:-0.226 11:-0.963 12:2.625 13:0.041000001 #
2 1:0.75999999 2:0.38800001 3:0.098999999 4:0.098999999 5:0.16 6:0.1 7:0.21699999 8:2 9:-1.761 10:-0.39399999 11:-0.94099998 12:2.3280001 13:0.152 #
-2 1:0.41299999 2:0.611 3:0.041999999 4:0.057999998 5:0.079999998 6:0.024 7:0.40000001 8:3 9:-1.45 10:-0.37 11:-0.99800003 12:2.418 13:0.039999999 #
-2 1:0.73799998 2:0.29699999 3:0.117 4:0.12800001 5:0.169 6:0.1 7:0.148 8:2.615 9:-2.2320001 10:-0.23199999 11:-0.95599997 12:2.444 13:0.63800001 #
-2 1:0.713 2:-0.077 3:0.108 4:0.15099999 5:0.15800001 6:0.057999998 7:0.111 8:2.55 9:-1.865 10:-0.34400001 11:-0.99599999 12:2.4909999 13:0.067000002 #
2 1:0.72000003 2:0.45500001 3:0.186 4:0.22400001 5:0.27399999 6:0.13699999 7:0.057 8:2.98 9:-2.194 10:-0.317 11:-0.86400002 12:2.6259999 13:0.0099999998 #
-2 1:0.755 2:0.417 3:0.025 4:0.026000001 5:0.037999999 6:0.025 7:0.35699999 8:4.0999999 9:-0.49399999 10:-0.62199998 11:-0.93099999 12:2.697 13:0.035 #
2 1:0.81699997 2:-0.685 3:0.02 4:0.012 5:0.030999999 6:0.035999998 7:0.55599999 8:6 9:-0.63099998 10:-0.398 11:-1 12:2.4649999 13:0 #
-2 1:0.57800001 2:-0.102 3:0.021 4:0.022 5:0.039000001 6:0.02 7:0.333 8:4 9:-1.771 10:-0.155 11:-1 12:2.6429999 13:0.0080000004 #
2 1:0.75599998 2:0.31 3:0.118 4:0.123 5:0.191 6:0.113 7:0.11 8:3.9389999 9:-1.2640001 10:-0.551 11:-0.84600002 12:2.563 13:0.46799999 #
-2 1:0.713 2:0.12899999 3:0.086000003 4:0.102 5:0.11 6:0.063000001 7:0.28600001 8:2 9:-1.248 10:-0.52899998 11:-0.95099998 12:2.3729999 13:1.354 #
2 1:0.75800002 2:-0.243 3:0.055 4:0.133 5:0.148 6:0.083999999 7:0.14 8:2.5710001 9:-1.7130001 10:-0.40099999 11:-0.935 12:2.408 13:1.348 #
-2 1:0.65899998 2:0.27399999 3:0.089000002 4:0.105 5:0.199 6:0.068999998 7:0.141 8:3.2349999 9:-1.518 10:-0.377 11:-0.898 12:2.3239999 13:0.0040000002 #
2 1:0.55500001 2:-0.114 3:0.117 4:0.123 5:0.19 6:0.108 7:0.119 8:3 9:-1.6339999 10:-0.338 11:-0.97600001 12:2.4119999 13:0.42899999 #
2 1:0.73299998 2:0.51499999 3:0.012 4:0.0089999996 5:0.027000001 6:0.015 7:0.31200001 8:2.5999999 9:-1.585 10:-0.222 11:-1 12:2.717 13:0.198 #
-2 1:0.72600001 2:0.46799999 3:0.13500001 4:0.14399999 5:0.13600001 6:0.124 7:0.068999998 8:2.9389999 9:-1.6160001 10:-0.34599999 11:-0.94199997 12:2.8340001 13:0.66299999 #
-2 1:0.69099998 2:0.086999997 3:0.17299999 4:0.22499999 5:0.235 6:0.11 7:0.131 8:3.0450001 9:-1.727 10:-0.39899999 11:-0.92799997 12:2.362 13:0.037999999 #
2 1:0.85399997 2:0.23899999 3:0.28 4:0.32499999 5:0.391 6:0.219 7:0.23100001 8:2.619 9:-1.2460001 10:-0.61299998 11:-0.94499999 12:1.839 13:0.722 #
2 1:0.708 2:-0.14 3:0.25799999 4:0.31099999 5:0.33899999 6:0.191 7:0.11 8:2.217 9:-2.0350001 10:-0.34400001 11:-0.90700001 12:2.0929999 13:1.012 #
2 1:0.40200001 2:0.41999999 3:0.016000001 4:0.028000001 5:0.052999999 6:0.035999998 7:0.333 8:3.2 9:-1.771 10:-0.155 11:-1 12:2.6600001 13:0.0020000001 #
2 1:0.71899998 2:0.0020000001 3:0.17299999 4:0.21699999 5:0.26100001 6:0.118 7:0.057999998 8:2.707 9:-2.017 10:-0.375 11:-0.917 12:2.6240001 13:0.030999999 #
-2 1:0.79000002 2:0.33500001 3:0.037999999 4:0.108 5:0.097999997 6:0.032000002 7:0.271 8:1.846 9:-1.227 10:-0.52499998 11:-0.98799998 12:2.3889999 13:1.3710001 #
2 1:0.71899998 2:0.421 3:0.035 4:0.033 5:0.057 6:0.037999999 7:0.119 8:3.529 9:-1.6339999 10:-0.338 11:-0.97600001 12:2.9400001 13:0 #
2 1:0.68699998 2:0.054000001 3:0.30700001 4:0.361 5:0.359 6:0.245 7:0.059 8:2.7969999 9:-2.006 10:-0.44100001 11:-0.88499999 12:2.517 13:0.778 #
-2 1:0.68699998 2:-0.22400001 3:0.161 4:0.199 5:0.237 6:0.117 7:0.057999998 8:2.915 9:-2.089 10:-0.35699999 11:-0.958 12:2.625 13:0 #
2 1:0.76800001 2:0.234 3:0.024 4:0.033 5:0.052999999 6:0.012 7:0.333 8:3.25 9:-2.585 10:-0.125 11:-1 12:2.5039999 13:0.025 #
-2 1:0.704 2:-0.025 3:0.102 4:0.114 5:0.146 6:0.089000002 7:0.118 8:3.8 9:-2.0190001 10:-0.31799999 11:-0.977 12:2.5669999 13:0.366 #
-2 1:0.71399999 2:0.15899999 3:0.12899999 4:0.17200001 5:0.212 6:0.075000003 7:0.075999998 8:3.576 9:-2.243 10:-0.292 11:-0.92900002 12:2.599 13:0.068000004 #
2 1:0.79900002 2:0.43200001 3:0.122 4:0.127 5:0.223 6:0.116 7:0.19499999 8:2.2 9:-1.552 10:-0.44299999 11:-0.95099998 12:2.1960001 13:1.0089999 #
2 1:0.77999997 2:0.39199999 3:0.075999998 4:0.177 5:0.177 6:0.123 7:0.108 8:2.424 9:-1.145 10:-0.56 11:-0.95899999 12:2.5439999 13:0.55699998 #
2 1:0.78100002 2:0.092 3:0.093999997 4:0.119 5:0.104 6:0.057 7:0.23999999 8:1.957 9:-0.91799998 10:-0.77899998 11:-0.741 12:2.398 13:1.337 #
2 1:0.80199999 2:0.14399999 3:0.057999998 4:0.122 5:0.162 6:0.106 7:0.147 8:2.0910001 9:-1.624 10:-0.47299999 11:-0.986 12:2.4349999 13:0.62599999 #
2 1:0.764 2:0.183 3:0.147 4:0.208 5:0.222 6:0.078000002 7:0.071999997 8:2.7320001 9:-1.982 10:-0.36300001 11:-0.85399997 12:2.598 13:0.044 #
-2 1:0.73100001 2:0.153 3:0.064000003 4:0.141 5:0.17399999 6:0.108 7:0.147 8:2.7390001 9:-1.457 10:-0.46900001 11:-0.926 12:2.4579999 13:0.015 #
2 1:0.70999998 2:0.36199999 3:0.184 4:0.236 5:0.27900001 6:0.122 7:0.059 8:3.0380001 9:-2.26 10:-0.34 11:-0.94099998 12:2.6329999 13:0.057 #
2 1:0.85100001 2:0.23800001 3:0.23899999 4:0.244 5:0.377 6:0.23100001 7:0.25999999 8:3.0999999 9:-1.075 10:-0.68800002 11:-0.89499998 12:1.839 13:0.67699999 #
-2 1:0.704 2:0.41100001 3:0.098999999 4:0.124 5:0.134 6:0.061999999 7:0.167 8:2.1110001 9:-1.562 10:-0.447 11:-0.92199999 12:2.441 13:1.211 #
2 1:0.71399999 2:0.30199999 3:0.185 4:0.23800001 5:0.28799999 6:0.123 7:0.057999998 8:3 9:-2.0250001 10:-0.366 11:-0.94400001 12:2.6329999 13:0.057 #
2 1:0.71100003 2:0.30599999 3:0.186 4:0.23800001 5:0.28400001 6:0.126 7:0.059999999 8:3.056 9:-2.0179999 10:-0.384 11:-0.92299998 12:2.6329999 13:0.061000001 #
-2 1:0.70499998 2:0.23800001 3:0.186 4:0.22400001 5:0.169 6:0.134 7:0.026000001 8:3.0079999 9:-2.424 10:-0.287 11:-0.93300003 12:3.1099999 13:0.124 #
2 1:0.74599999 2:-0.114 3:0.072999999 4:0.148 5:0.17900001 6:0.141 7:0.103 8:2.783 9:-2.0350001 10:-0.34799999 11:-0.91100001 12:2.5739999 13:0.60900003 #
-2 1:0.78899997 2:0.347 3:0.092 4:0.119 5:0.14 6:0.057999998 7:0.15800001 8:2.737 9:-1.416 10:-0.47600001 11:-0.96600002 12:2.444 13:0.0060000001 #
-2 1:0.74900001 2:0.34099999 3:0.29499999 4:0.38800001 5:0.30899999 6:0.18099999 7:0.050000001 8:2.1029999 9:-2.2279999 10:-0.31799999 11:-0.98000002 12:2.5669999 13:1.038 #
2 1:0.69499999 2:0.121 3:0.0089999996 4:0.0089999996 5:0.016000001 6:0.0099999998 7:0.44400001 8:2.75 9:-1 10:-0.301 11:-1 12:3.0090001 13:0 #
2 1:0.671 2:-0.035999998 3:0.041000001 4:0.035999998 5:0.050999999 6:0.046999998 7:0.175 8:2.8570001 9:-1.212 10:-0.426 11:-0.98699999 12:2.7690001 13:0 #
-2 1:0.71799999 2:0.0040000002 3:0.098999999 4:0.189 5:0.29699999 6:0.211 7:0.125 8:2.2309999 9:-2.234 10:-0.317 11:-0.82200003 12:2.072 13:0.87099999 #
-2 1:0.71600002 2:0.454 3:0.13500001 4:0.14300001 5:0.13500001 6:0.124 7:0.078000002 8:2.875 9:-2.2360001 10:-0.28799999 11:-0.93599999 12:2.8340001 13:0.66299999 #
-2 1:0.72299999 2:-0.74900001 3:0.057999998 4:0.068999998 5:0.116 6:0.043000001 7:0.333 8:3.3329999 9:-1.3329999 10:-0.39199999 11:-0.958 12:2.332 13:1.268 #
2 1:0.73199999 2:0.191 3:0.132 4:0.176 5:0.21799999 6:0.074000001 7:0.075999998 8:2.4590001 9:-0.99400002 10:-0.5 11:-0.82800001 12:2.612 13:0.035999998 #
-2 1:0.74400002 2:-0.102 3:0.125 4:0.15099999 5:0.123 6:0.093999997 7:0.082999997 8:2.5710001 9:-0.84799999 10:-0.52499998 11:-0.903 12:2.8840001 13:0 #
2 1:0.74299997 2:0.42399999 3:0.116 4:0.101 5:0.14399999 6:0.138 7:0.149 8:3.3599999 9:-1.676 10:-0.53899997 11:-0.91600001 12:2.5580001 13:1.3940001 #
-2 1:0.75800002 2:0.28799999 3:0.097999997 4:0.121 5:0.13699999 6:0.068999998 7:0.167 8:2.7219999 9:-0.89200002 10:-0.52999997 11:-0.78200001 12:2.444 13:0.0060000001 #
-2 1:0.73000002 2:0.296 3:0.112 4:0.125 5:0.16 6:0.093000002 7:0.11 8:2.6960001 9:-1.215 10:-0.42699999 11:-0.96899998 12:2.4489999 13:0.0089999996 #
2 1:0.74000001 2:0.184 3:0.134 4:0.13500001 5:0.163 6:0.131 7:0.127 8:2.7880001 9:-1.674 10:-0.51499999 11:-0.95899999 12:2.652 13:1.331 #
-2 1:0.796 2:-0.18700001 3:0.18700001 4:0.227 5:0.23899999 6:0.131 7:0.163 8:3.5880001 9:-1.794 10:-0.373 11:-0.972 12:2.2460001 13:1.22 #
-2 1:0.70200002 2:0.16 3:0.035 4:0.083999999 5:0.079999998 6:0.048999999 7:0.11 8:1.767 9:-1.3559999 10:-0.50099999 11:-0.92900002 12:2.941 13:0.79699999 #
-2 1:0.70300001 2:0.14 3:0.102 4:0.204 5:0.303 6:0.20200001 7:0.14399999 8:2.0669999 9:-1.904 10:-0.26300001 11:-0.97899997 12:2.076 13:0.84100002 #
-2 1:0.778 2:0.35600001 3:0.071000002 4:0.082000002 5:0.092 6:0.056000002 7:0.15800001 8:3.053 9:-1.631 10:-0.426 11:-0.92900002 12:2.7179999 13:0.796 #
2 1:0.80199999 2:0.17 3:0.14399999 4:0.171 5:0.244 6:0.111 7:0.208 8:3.2 9:-1.911 10:-0.287 11:-0.95499998 12:2.076 13:0.23199999 #
2 1:0.741 2:0.229 3:0.15899999 4:0.199 5:0.226 6:0.106 7:0.064000003 8:2.7 9:-1.987 10:-0.38100001 11:-0.93599999 12:2.6229999 13:0.028999999 #
2 1:0.72299999 2:-0.38699999 3:0.12899999 4:0.13500001 5:0.189 6:0.122 7:0.104 8:2.04 9:-1.693 10:-0.43700001 11:-0.88499999 12:2.562 13:0.63200003 #
-2 1:0.66500002 2:0.207 3:0.123 4:0.164 5:0.19499999 6:0.071999997 7:0.145 8:3.125 9:-1.376 10:-0.51700002 11:-0.89999998 12:2.332 13:0.0040000002 #
2 1:0.78200001 2:0.041000001 3:0.13699999 4:0.32699999 5:0.347 6:0.20100001 7:0.139 8:2.0799999 9:-1.613 10:-0.44999999 11:-0.86199999 12:2.0929999 13:1.012 #
-2 1:0.75700003 2:0.161 3:0.139 4:0.20200001 5:0.18000001 6:0.063000001 7:0.101 8:2.138 9:-1.772 10:-0.38100001 11:-0.94400001 12:2.4530001 13:0.086000003 #
-2 1:0.75700003 2:0.12800001 3:0.46900001 4:0.537 5:0.59200001 6:0.384 7:0.067000002 8:2.5150001 9:-1.7 10:-0.324 11:-0.963 12:2.0969999 13:0.602 #
-2 1:0.77200001 2:0.050999999 3:0.125 4:0.134 5:0.193 6:0.115 7:0.108 8:4.2259998 9:-1.173 10:-0.55699998 11:-0.926 12:2.5650001 13:0.46900001 #
-2 1:0.74699998 2:-0.17299999 3:0.048999999 4:0.131 5:0.125 6:0.059 7:0.116 8:2.3570001 9:-2.1259999 10:-0.27700001 11:-0.93099999 12:2.484 13:0.003 #
-2 1:0.727 2:0.14300001 3:0.141 4:0.171 5:0.17399999 6:0.094999999 7:0.059999999 8:2.5420001 9:-1.914 10:-0.33500001 11:-0.95099998 12:2.704 13:0.055 #
2 1:0.74299997 2:0.162 3:0.131 4:0.17299999 5:0.21600001 6:0.079999998 7:0.075000003 8:2.5139999 9:-2.197 10:-0.317 11:-0.954 12:2.605 13:0.045000002 #
2 1:0.47499999 2:0.081 3:0.064999998 4:0.075999998 5:0.148 6:0.052999999 7:0.31200001 8:3.2 9:-1.585 10:-0.222 11:-1 12:2.276 13:0.0049999999 #
-2 1:0.75999999 2:0.148 3:0.061999999 4:0.147 5:0.18799999 6:0.097000003 7:0.13 8:3.1429999 9:-1 10:-0.301 11:-1 12:2.4419999 13:0.64700001 #
-2 1:0.75300002 2:0.234 3:0.333 4:0.41299999 5:0.31200001 6:0.23899999 7:0.056000002 8:2.6719999 9:-1.722 10:-0.45300001 11:-0.94300002 12:2.559 13:1.028 #
2 1:0.81900001 2:0.119 3:0.114 4:0.123 5:0.16500001 6:0.101 7:0.2 8:2.1670001 9:-1.352 10:-0.375 11:-0.98100001 12:2.2460001 13:1.176 #
-2 1:0.61199999 2:0.30899999 3:0.067000002 4:0.079999998 5:0.086000003 6:0.050000001 7:0.106 8:2.316 9:-2.325 10:-0.26300001 11:-0.96700001 12:2.812 13:0.0080000004 #
-2 1:0.704 2:0.013 3:0.052000001 4:0.118 5:0.111 6:0.092 7:0.086000003 8:2.974 9:-1.75 10:-0.46000001 11:-0.78600001 12:2.756 13:0 #
2 1:0.66600001 2:0.041000001 3:0.35699999 4:0.461 5:0.41600001 6:0.234 7:0.090000004 8:1.913 9:-1.734 10:-0.46799999 11:-0.90799999 12:2.22 13:0.889 #
-2 1:0.73400003 2:0.44600001 3:0.090999998 4:0.124 5:0.113 6:0.041999999 7:0.19 8:1.938 9:-1.313 10:-0.52100003 11:-0.90899998 12:2.378 13:1.277 #
2 1:0.71200001 2:0.29300001 3:0.183 4:0.23199999 5:0.28400001 6:0.126 7:0.055 8:3.1370001 9:-2.1129999 10:-0.329 11:-0.96499997 12:2.6329999 13:0.061000001 #
-2 1:0.796 2:0.182 3:0.082999997 4:0.088 5:0.12 6:0.075999998 7:0.19599999 8:3.3180001 9:-1.494 10:-0.52200001 11:-0.94700003 12:2.513 13:1.5 #
2 1:0.60900003 2:0.23100001 3:0.075000003 4:0.079000004 5:0.12899999 6:0.068999998 7:0.11 8:1.95 9:-1.5470001 10:-0.34999999 11:-0.991 12:2.628 13:0.0020000001 #
2 1:0.68400002 2:0.382 3:0.030999999 4:0.027000001 5:0.050000001 6:0.035999998 7:0.23800001 8:2.4000001 9:-1.278 10:-0.40900001 11:-0.99599999 12:2.8829999 13:0.0020000001 #
2 1:0.70700002 2:-0.54400003 3:0.011 4:0.012 5:0.014 6:0.0099999998 7:0.5 8:3 9:-1 10:0.30000001 11:0 12:2.628 13:1.618 #
2 1:0.71499997 2:-0.28999999 3:0.068999998 4:0.057999998 5:0.079000004 6:0.083999999 7:0.132 8:3.027 9:-1.595 10:-0.52999997 11:-0.98299998 12:2.8510001 13:1.729 #
2 1:0.71100003 2:0.171 3:0.19 4:0.241 5:0.301 6:0.13500001 7:0.046999998 8:3.132 9:-2.188 10:-0.30700001 11:-0.97500002 12:2.625 13:0.041000001 #
-2 1:0.77200001 2:0.43900001 3:0.086000003 4:0.101 5:0.116 6:0.066 7:0.164 8:2.3889999 9:-1.562 10:-0.447 11:-0.92199999 12:2.4549999 13:0.0089999996 #
2 1:0.722 2:0.176 3:0.117 4:0.105 5:0.17200001 6:0.133 7:0.273 8:3.25 9:-1.3789999 10:-0.56900001 11:-0.73299998 12:2.3770001 13:1.275 #
-2 1:0.67299998 2:0.177 3:0.093000002 4:0.121 5:0.115 6:0.054000001 7:0.296 8:2.188 9:-0.64300001 10:-0.73900002 11:-0.87099999 12:2.4170001 13:1.317 #
-2 1:0.755 2:0.23100001 3:0.061000001 4:0.147 5:0.182 6:0.093999997 7:0.156 8:3.1670001 9:-2.266 10:-0.22 11:-0.98100001 12:2.4389999 13:0.63200003 #
2 1:0.75599998 2:0.34 3:0.050000001 4:0.11 5:0.149 6:0.090000004 7:0.26699999 8:3 9:-0.26300001 10:-0.426 11:-1 12:2.358 13:0.54000002 #
-2 1:0.72299999 2:0.26800001 3:0.141 4:0.186 5:0.193 6:0.085000001 7:0.164 8:3.1670001 9:-0.76300001 10:-0.54500002 11:-0.93099999 12:2.326 13:0.057 #
-2 1:0.73100001 2:-0.149 3:0.068000004 4:0.068000004 5:0.094999999 6:0.067000002 7:0.28 8:2.714 9:-0.58499998 10:-0.368 11:-1 12:2.1700001 13:0 #
2 1:0.74599999 2:0.14399999 3:0.16599999 4:0.214 5:0.255 6:0.109 7:0.061000001 8:2.681 9:-2.1489999 10:-0.32499999 11:-0.96200001 12:2.6259999 13:0.027000001 #
-2 1:0.48100001 2:0.235 3:0.0080000004 4:0.0040000002 5:0.027000001 6:0.014 7:1 8:3 9:-1 10:0.30000001 11:0 12:2.3399999 13:0.0040000002 #
2 1:0.75700003 2:0.064000003 3:0.28999999 4:0.35299999 5:0.235 6:0.205 7:0.027000001 8:3.1289999 9:-1.9220001 10:-0.42399999 11:-0.95300001 12:2.8889999 13:0.237 #
-2 1:0.72100002 2:0.417 3:0.085000001 4:0.111 5:0.103 6:0.048999999 7:0.259 8:1.786 9:-1.355 10:-0.57200003 11:-0.95999998 12:2.418 13:1.319 #
-2 1:0.68599999 2:0.059 3:0.121 4:0.13 5:0.109 6:0.109 7:0.037999999 8:2.9879999 9:-1.719 10:-0.42899999 11:-0.98900002 12:3.1830001 13:0 #
2 1:0.63499999 2:0.699 3:0.07 4:0.059 5:0.117 6:0.083999999 7:0.20299999 8:2.9230001 9:-1.161 10:-0.43099999 11:-0.99699998 12:2.4100001 13:0.45300001 #
2 1:0.76099998 2:0.237 3:0.141 4:0.17299999 5:0.23199999 6:0.102 7:0.071000002 8:2.6340001 9:-1.902 10:-0.34999999 11:-0.92199999 12:2.609 13:0.034000002 #
-2 1:0.64099997 2:0.138 3:0.082999997 4:0.118 5:0.117 6:0.041000001 7:0.142 8:2.471 9:-2.062 10:-0.33000001 11:-0.93400002 12:2.487 13:0.57099998 #
-2 1:0.71700001 2:0.44100001 3:0.133 4:0.13500001 5:0.18000001 6:0.13 7:0.104 8:3.842 9:-2.4000001 10:-0.229 11:-0.89700001 12:2.4530001 13:0.639 #
2 1:0.37900001 2:0.204 3:0.028999999 4:0.024 5:0.057 6:0.035999998 7:0.333 8:1.6670001 9:-1 10:0.30000001 11:0 12:2.418 13:0 #
2 1:0.676 2:0.33399999 3:0.13 4:0.146 5:0.147 6:0.108 7:0.11 8:2.348 9:-1.215 10:-0.42699999 11:-0.96899998 12:2.533 13:0.60399997 #
-2 1:0.72500002 2:0.37099999 3:0.046999998 4:0.092 5:0.156 6:0.098999999 7:0.222 8:4.3330002 9:-1.74 10:-0.391 11:-0.963 12:2.3640001 13:0.31799999 #
2 1:0.75199997 2:0.37400001 3:0.090000004 4:0.086999997 5:0.12 6:0.093999997 7:0.12800001 8:2.55 9:-1.934 10:-0.347 11:-0.95499998 12:2.6029999 13:1.006 #
2 1:0.72899997 2:0.233 3:0.13699999 4:0.147 5:0.206 6:0.126 7:0.083999999 8:3.1889999 9:-1.479 10:-0.45500001 11:-0.98100001 12:2.572 13:0.454 #
2 1:0.73500001 2:0.121 3:0.161 4:0.212 5:0.257 6:0.098999999 7:0.055 8:2.6530001 9:-1.976 10:-0.35100001 11:-0.926 12:2.615 13:0.025 #
-2 1:0.73100001 2:0.223 3:0.088 4:0.089000002 5:0.146 6:0.088 7:0.2 8:2.8329999 9:-1.45 10:-0.37 11:-0.99800003 12:2.438 13:0.141 #
-2 1:0.62599999 2:0.294 3:0.050000001 4:0.132 5:0.178 6:0.059999999 7:0.222 8:2.3570001 9:-0.84799999 10:-0.56699997 11:-0.64399999 12:2.3280001 13:0.012 #
2 1:0.77399999 2:0.24600001 3:0.125 4:0.131 5:0.199 6:0.119 7:0.086999997 8:3.7880001 9:-1.849 10:-0.40799999 11:-0.84600002 12:2.5650001 13:0.45699999 #
-2 1:0.79000002 2:0.122 3:0.114 4:0.29499999 5:0.333 6:0.125 7:0.071999997 8:2.8540001 9:-1.982 10:-0.36300001 11:-0.85399997 12:2.29 13:0.373 #
-2 1:0.75999999 2:0.079000004 3:0.164 4:0.20299999 5:0.197 6:0.11 7:0.048 8:2.8210001 9:-2.026 10:-0.347 11:-0.97600001 12:2.7090001 13:0.048 #
-2 1:0.73900002 2:0.35600001 3:0.146 4:0.191 5:0.206 6:0.089000002 7:0.15899999 8:3.5710001 9:-1.253 10:-0.52499998 11:-0.96899998 12:2.358 13:0.0080000004 #
-2 1:0.75999999 2:0.255 3:0.085000001 4:0.1 5:0.116 6:0.066 7:0.094999999 8:3.552 9:-1.036 10:-0.47999999 11:-0.89399999 12:2.678 13:0.56999999 #
2 1:0.676 2:0.102 3:0.18799999 4:0.233 5:0.27399999 6:0.134 7:0.054000001 8:2.74 9:-2.4530001 10:-0.30599999 11:-0.92500001 12:2.6229999 13:0.012 #
2 1:0.73199999 2:0.41800001 3:0.026000001 4:0.023 5:0.034000002 6:0.029999999 7:0.15899999 8:3 9:-2.3740001 10:-0.214 11:-0.99400002 12:2.862 13:0 #
2 1:0.56599998 2:0.171 3:0.018999999 4:0.015 5:0.037 6:0.024 7:0.375 8:3.3329999 9:0 10:-0.477 11:0 12:2.513 13:0.60399997 #
2 1:0.713 2:0.33399999 3:0.074000001 4:0.079000004 5:0.088 6:0.068000004 7:0.066 8:2.3699999 9:-1.989 10:-0.373 11:-0.83099997 12:3.007 13:0.34999999 #
2 1:0.84100002 2:-0.208 3:0.0089999996 4:0.0060000001 5:0.0099999998 6:0.013 7:0.5 8:4 9:-2 10:-0.176 11:-1 12:2.7639999 13:0.0070000002 #
2 1:0.75800002 2:0.0020000001 3:0.28999999 4:0.35100001 5:0.237 6:0.208 7:0.027000001 8:3.0840001 9:-1.939 10:-0.41999999 11:-0.95300001 12:2.8889999 13:0.235 #
2 1:0.73199999 2:0.229 3:0.127 4:0.127 5:0.183 6:0.127 7:0.148 8:2.556 9:-1.605 10:-0.51999998 11:-0.87599999 12:2.4360001 13:0.022 #
2 1:0.73100001 2:0.018999999 3:0.163 4:0.133 5:0.252 6:0.20200001 7:0.31200001 8:3.3 9:-1.2920001 10:-0.41999999 11:-0.90899998 12:2.0610001 13:0.97600001 #
-2 1:0.74299997 2:0.046 3:0.205 4:0.26800001 5:0.235 6:0.118 7:0.041999999 8:2.5 9:-1.711 10:-0.454 11:-0.972 12:2.723 13:0 #
-2 1:0.81199998 2:-0.42199999 3:0.101 4:0.116 5:0.12800001 6:0.082999997 7:0.177 8:3.7060001 9:-1.55 10:-0.42899999 11:-0.97799999 12:2.3859999 13:1.214 #
-2 1:0.73500001 2:-0.241 3:0.124 4:0.14399999 5:0.16 6:0.098999999 7:0.193 8:2.882 9:-0.64899999 10:-0.60399997 11:-0.62699997 12:2.2880001 13:1.221 #
2 1:0.74299997 2:0.57599998 3:0.046999998 4:0.107 5:0.19599999 6:0.072999999 7:0.14399999 8:1.6 9:-1.74 10:-0.31 11:-0.99299997 12:2.3099999 13:0.034000002 #
2 1:0.639 2:0.34099999 3:0.097999997 4:0.1 5:0.12 6:0.096000001 7:0.082000002 8:2.056 9:-2.0450001 10:-0.37799999 11:-0.92000002 12:2.8010001 13:0.177 #
-2 1:0.77899998 2:0.255 3:0.22499999 4:0.278 5:0.289 6:0.15899999 7:0.041000001 8:2.23 9:-2.0829999 10:-0.308 11:-0.94 12:2.691 13:0.27599999 #
-2 1:0.76099998 2:0.37599999 3:0.097000003 4:0.123 5:0.141 6:0.064000003 7:0.162 8:2.789 9:-1.698 10:-0.43000001 11:-0.89899999 12:2.441 13:0.013 #
-2 1:0.65700001 2:-0.017000001 3:0.037999999 4:0.079000004 5:0.072999999 6:0.07 7:0.061999999 8:2.9400001 9:-1.949 10:-0.472 11:-0.78799999 12:3.204 13:0.0049999999 #
2 1:0.71399999 2:0.39199999 3:0.138 4:0.12800001 5:0.204 6:0.154 7:0.40000001 8:2.5829999 9:-0.62699997 10:-0.77499998 11:-0.61500001 12:2.033 13:0.032000002 #
-2 1:0.73500001 2:0.20299999 3:0.081 4:0.097000003 5:0.088 6:0.063000001 7:0.050999999 8:3.2130001 9:-2.0810001 10:-0.30500001 11:-0.96799999 12:3.102 13:0.048999999 #
-2 1:0.68400002 2:-0.574 3:0.079000004 4:0.2 5:0.237 6:0.105 7:0.063000001 8:2.8859999 9:-2.1440001 10:-0.34099999 11:-0.94099998 12:2.625 13:0.012 #
2 1:0.75999999 2:-0.70200002 3:0.048999999 4:0.054000001 5:0.115 6:0.039999999 7:0.23999999 8:5.8330002 9:-2 10:-0.176 11:-1 12:2.418 13:0 #
-2 1:0.671 2:0.35100001 3:0.126 4:0.152 5:0.155 6:0.086000003 7:0.041999999 8:2.184 9:-1.867 10:-0.296 11:-0.95099998 12:2.9660001 13:0.003 #
2 1:0.486 2:0.12800001 3:0.061000001 4:0.061000001 5:0.097999997 6:0.061000001 7:0.2 8:2.1670001 9:-3.322 10:-0.079000004 11:-1 12:2.4389999 13:0.003 #
-2 1:0.76200002 2:0.19499999 3:0.109 4:0.107 5:0.101 6:0.113 7:0.043000001 8:3.885 9:-1.7180001 10:-0.449 11:-0.94300002 12:3.1760001 13:0.0060000001 #
-2 1:0.67699999 2:0.579 3:0.118 4:0.122 5:0.104 6:0.114 7:0.059 8:2.45 9:-1.2410001 10:-0.42399999 11:-0.95499998 12:3.076 13:0 #
-2 1:0.70899999 2:0.017000001 3:0.146 4:0.189 5:0.223 6:0.088 7:0.072999999 8:3.125 9:-1.339 10:-0.39399999 11:-1 12:2.6059999 13:0.017000001 #
2 1:0.76499999 2:-0.59399998 3:0.16500001 4:0.18700001 5:0.199 6:0.13699999 7:0.133 8:2.4549999 9:-1.863 10:-0.40400001 11:-0.97600001 12:2.4000001 13:0.85100001 #
-2 1:0.77200001 2:0.035 3:0.34799999 4:0.43799999 5:0.50999999 6:0.226 7:0.108 8:2 9:-1.992 10:-0.34099999 11:-0.93099999 12:2 13:0.68900001 #
-2 1:0.71499997 2:0.048999999 3:0.081 4:0.149 5:0.23899999 6:0.18000001 7:0.183 8:2.727 9:-2.105 10:-0.249 11:-0.97100002 12:2.0680001 13:0.903 #
2 1:0.79400003 2:0.153 3:0.094999999 4:0.113 5:0.14300001 6:0.072999999 7:0.121 8:2.8180001 9:-0.94499999 10:-0.63599998 11:-0.88700002 12:2.6300001 13:0.030999999 #
2 1:0.62099999 2:0.18000001 3:0.035999998 4:0.022 5:0.059 6:0.056000002 7:0.44400001 8:3 9:-1 10:-0.301 11:-1 12:2.507 13:0.003 #
-2 1:0.72600001 2:0.075000003 3:0.15000001 4:0.153 5:0.17 6:0.145 7:0.059 8:2.891 9:-0.53200001 10:-0.60900003 11:-0.963 12:2.744 13:0.0089999996 #
-2 1:0.79799998 2:-0.163 3:0.035 4:0.071999997 5:0.21699999 6:0.064999998 7:0.43799999 8:3.286 9:-0.671 10:-0.57099998 11:-0.93099999 12:1.778 13:0 #
2 1:0.75700003 2:0.31299999 3:0.121 4:0.121 5:0.2 6:0.119 7:0.104 8:3.6670001 9:-1.717 10:-0.435 11:-0.84200001 12:2.562 13:0.46599999 #
-2 1:0.773 2:-0.1 3:0.175 4:0.23800001 5:0.25299999 6:0.090999998 7:0.116 8:2.346 9:-1.877 10:-0.40000001 11:-0.963 12:2.336 13:0.47999999 #
2 1:0.69199997 2:0.32100001 3:0.178 4:0.235 5:0.25099999 6:0.108 7:0.057999998 8:2.756 9:-1.388 10:-0.42399999 11:-0.81900001 12:2.618 13:0.0060000001 #
-2 1:0.72799999 2:0.43799999 3:0.027000001 4:0.057999998 5:0.072999999 6:0.046999998 7:0.15000001 8:2.8 9:-1.3200001 10:-0.45199999 11:-0.74299997 12:2.859 13:0.001 #
2 1:0.676 2:0.032000002 3:0.169 4:0.43799999 5:0.41499999 6:0.213 7:0.082999997 8:2.188 9:-1.877 10:-0.47 11:-0.91000003 12:2.2149999 13:0.88300002 #
2 1:0.58999997 2:0.505 3:0.0049999999 4:0.0040000002 5:0.0089999996 6:0.0049999999 7:1 8:4 9:-1 10:0.30000001 11:0 12:2.7360001 13:0 #
-2 1:0.713 2:-0.085000001 3:0.119 4:0.13699999 5:0.146 6:0.097000003 7:0.15700001 8:3.2349999 9:-1.701 10:-0.396 11:-0.97000003 12:2.312 13:1.135 #
2 1:0.74299997 2:0.015 3:0.169 4:0.21600001 5:0.25299999 6:0.106 7:0.068999998 8:2.76 9:-1.348 10:-0.51300001 11:-0.88999999 12:2.6140001 13:0.048999999 #
-2 1:0.773 2:0.20200001 3:0.055 4:0.13600001 5:0.18000001 6:0.082000002 7:0.155 8:2.9230001 9:-2.2320001 10:-0.23199999 11:-0.95599997 12:2.444 13:0.648 #
-2 1:0.63999999 2:-0.35299999 3:0.29300001 4:0.40799999 5:0.34599999 6:0.17900001 7:0.068000004 8:2.773 9:-1.807 10:-0.19599999 11:-1 12:2.358 13:0 #
-2 1:0.62400001 2:0.146 3:0.16599999 4:0.205 5:0.199 6:0.119 7:0.064000003 8:2.244 9:-2.0599999 10:-0.36000001 11:-0.94400001 12:2.7060001 13:0.024 #
2 1:0.75800002 2:-0.028999999 3:0.28799999 4:0.34599999 5:0.23999999 6:0.20999999 7:0.027000001 8:3.1530001 9:-1.9450001 10:-0.40900001 11:-0.96799999 12:2.8889999 13:0.235 #
2 1:0.74699998 2:0.18099999 3:0.125 4:0.133 5:0.19499999 6:0.115 7:0.092 8:3.7939999 9:-1.272 10:-0.51700002 11:-0.98100001 12:2.5669999 13:0.46599999 #
-2 1:0.75099999 2:0.30599999 3:0.329 4:0.37200001 5:0.39500001 6:0.28299999 7:0.11 8:2.04 9:-2.0699999 10:-0.33899999 11:-0.92000002 12:2.1670001 13:0.94400001 #
-2 1:0.75 2:0.41100001 3:0.024 4:0.026000001 5:0.035 6:0.021 7:0.28600001 8:3.9000001 9:-0.88300002 10:-0.53100002 11:-0.76700002 12:2.71 13:0.059 #
-2 1:0.76099998 2:0.31600001 3:0.30899999 4:0.40099999 5:0.32699999 6:0.198 7:0.050999999 8:2 9:-1.473 10:-0.47799999 11:-0.90600002 12:2.572 13:0.98500001 #
2 1:0.74000001 2:0.51099998 3:0.138 4:0.147 5:0.223 6:0.125 7:0.12800001 8:3.1329999 9:-2.342 10:-0.21799999 11:-0.94499999 12:2.2739999 13:0.017999999 #
2 1:0.77499998 2:-0.13 3:0.104 4:0.139 5:0.118 6:0.068999998 7:0.25 8:2.3499999 9:-1.5369999 10:-0.574 11:-0.93199998 12:2.497 13:1.4400001 #
-2 1:0.71899998 2:-0.114 3:0.171 4:0.22400001 5:0.23999999 6:0.11 7:0.064000003 8:3.1459999 9:-1.98 10:-0.37099999 11:-0.96100003 12:2.6370001 13:0.0040000002 #
2 1:0.69 2:0.25799999 3:0.197 4:0.249 5:0.29699999 6:0.141 7:0.046 8:2.8789999 9:-2.105 10:-0.31900001 11:-0.98500001 12:2.6340001 13:0.050000001 #
2 1:0.75599998 2:0.11 3:0.147 4:0.182 5:0.25099999 6:0.102 7:0.071000002 8:2.783 9:-1.851 10:-0.417 11:-0.86000001 12:2.6099999 13:0.028000001 #
-2 1:0.78200001 2:-0.050000001 3:0.38 4:0.44100001 5:0.51999998 6:0.28400001 7:0.101 8:2.0339999 9:-1.9220001 10:-0.35600001 11:-0.912 12:2 13:0.63 #
2 1:0.75099999 2:0.182 3:0.16500001 4:0.212 5:0.25 6:0.106 7:0.071000002 8:3.3039999 9:-1.592 10:-0.46700001 11:-0.85500002 12:2.615 13:0.041999999 #
2 1:0.745 2:0.24699999 3:0.12899999 4:0.14 5:0.204 6:0.115 7:0.086999997 8:3.7809999 9:-1.673 10:-0.40000001 11:-0.98100001 12:2.566 13:0.465 #
-2 1:0.75700003 2:0.223 3:0.12899999 4:0.12899999 5:0.17399999 6:0.12899999 7:0.17399999 8:2.5999999 9:-1.451 10:-0.58399999 11:-0.84100002 12:2.4579999 13:0.015 #
-2 1:0.72500002 2:0.50700003 3:0.13600001 4:0.14399999 5:0.139 6:0.126 7:0.071999997 8:2.75 9:-1.926 10:-0.35499999 11:-0.94599998 12:2.8340001 13:0.66299999 #
2 1:0.69700003 2:0.182 3:0.066 4:0.17900001 5:0.206 6:0.072999999 7:0.063000001 8:2.5280001 9:-1.45 10:-0.37 11:-0.99800003 12:2.6040001 13:0.026000001 #
2 1:0.75 2:0.21699999 3:0.125 4:0.127 5:0.21699999 6:0.122 7:0.079999998 8:3.4860001 9:-2.1110001 10:-0.34099999 11:-0.94800001 12:2.573 13:0.47999999 #
-2 1:0.74599999 2:0.208 3:0.12899999 4:0.12800001 5:0.171 6:0.12899999 7:0.167 8:2.6670001 9:-1.543 10:-0.53100002 11:-0.89300001 12:2.4579999 13:0.015 #
-2 1:0.80000001 2:0.28200001 3:0.226 4:0.25799999 5:0.53299999 6:0.171 7:0.32699999 8:3.5 9:1.063 10:-1.1619999 11:0.93099999 12:1.778 13:0 #
2 1:0.65200001 2:0.48300001 3:0.117 4:0.114 5:0.18099999 6:0.122 7:0.079999998 8:3.2690001 9:-2.233 10:-0.266 11:-0.98699999 12:2.6229999 13:0.237 #
-2 1:0.31099999 2:0.273 3:0.0080000004 4:0.0089999996 5:0.017999999 6:0.0070000002 7:1 8:2 9:-1 10:0.30000001 11:0 12:2.882 13:0 #
2 1:0.778 2:0.249 3:0.048 4:0.055 5:0.079000004 6:0.039999999 7:0.44999999 8:2 9:-0.88599998 10:-0.648 11:-0.94099998 12:2.405 13:0 #
-2 1:0.76800001 2:0.248 3:0.126 4:0.13500001 5:0.19599999 6:0.117 7:0.121 8:4.3699999 9:-1.652 10:-0.449 11:-0.84799999 12:2.5599999 13:0.45699999 #
-2 1:0.71799999 2:-0.064000003 3:0.44600001 4:0.505 5:0.755 6:0.35800001 7:0.19400001 8:1.786 9:-1.147 10:-0.46700001 11:-0.833 12:1.6900001 13:0.125 #
2 1:0.73799998 2:0.28099999 3:0.089000002 4:0.082999997 5:0.121 6:0.096000001 7:0.152 8:2.2 9:-1.563 10:-0.352 11:-0.96100003 12:2.447 13:0.119 #
-2 1:0.73500001 2:0.071999997 3:0.112 4:0.244 5:0.184 6:0.20100001 7:0.028000001 8:3.595 9:-2.323 10:-0.29499999 11:-0.94099998 12:3.0969999 13:0.43200001 #
-2 1:0.704 2:-0.101 3:0.16599999 4:0.207 5:0.26800001 6:0.118 7:0.122 8:2.368 9:-1.898 10:-0.34799999 11:-0.97799999 12:2.2880001 13:0.027000001 #
-2 1:0.82200003 2:0.18799999 3:0.090000004 4:0.12 5:0.097999997 6:0.046999998 7:0.221 8:2.7060001 9:-1.1720001 10:-0.58999997 11:-0.79100001 12:2.4070001 13:1.346 #
2 1:0.44499999 2:-0.18799999 3:0.075999998 4:0.079000004 5:0.145 6:0.071999997 7:0.17299999 8:3 9:-1.803 10:-0.36000001 11:-0.81 12:2.286 13:0.0049999999 #
-2 1:0.70200002 2:-0.127 3:0.185 4:0.241 5:0.257 6:0.115 7:0.061000001 8:2.8510001 9:-2.201 10:-0.34400001 11:-0.94 12:2.6110001 13:0.029999999 #
2 1:0.73000002 2:0.27599999 3:0.112 4:0.111 5:0.142 6:0.113 7:0.156 8:2.533 9:-1.7920001 10:-0.296 11:-0.95099998 12:2.2939999 13:1.084 #
-2 1:0.72899997 2:-0.039999999 3:0.149 4:0.20200001 5:0.226 6:0.088 7:0.059999999 8:2.9230001 9:-2.3629999 10:-0.25600001 11:-0.93699998 12:2.6229999 13:0.0080000004 #
-2 1:0.64999998 2:0.15899999 3:0.13 4:0.13500001 5:0.147 6:0.123 7:0.057999998 8:3.4649999 9:-1.943 10:-0.333 11:-0.97399998 12:2.875 13:0.227 #
2 1:0.68099999 2:0.162 3:0.24699999 4:0.26100001 5:0.352 6:0.229 7:0.077 8:2.487 9:-1.548 10:-0.43599999 11:-0.97899997 12:2.362 13:0.84100002 #
2 1:0.60500002 2:0.428 3:0.061000001 4:0.122 5:0.17900001 6:0.12 7:0.072999999 8:2.326 9:-1.46 10:-0.46399999 11:-0.95999998 12:2.7509999 13:0.65600002 #
-2 1:0.68099999 2:0.086999997 3:0.061999999 4:0.17399999 5:0.191 6:0.057999998 7:0.171 8:2.25 9:-2.0699999 10:-0.26300001 11:-0.94099998 12:2.1489999 13:0.92400002 #
-2 1:0.74400002 2:0.32600001 3:0.30700001 4:0.40099999 5:0.32100001 6:0.19400001 7:0.050999999 8:2.145 9:-1.875 10:-0.40200001 11:-0.954 12:2.566 13:1.007 #
2 1:0.78200001 2:0.17900001 3:0.113 4:0.116 5:0.178 6:0.109 7:0.108 8:3.839 9:-1.346 10:-0.50800002 11:-0.912 12:2.563 13:0.46799999 #
-2 1:0.76800001 2:0.141 3:0.066 4:0.132 5:0.178 6:0.133 7:0.14300001 8:2.5769999 9:-1.6720001 10:-0.484 11:-0.90899998 12:2.4579999 13:0.015 #
-2 1:0.69 2:0.133 3:0.13 4:0.141 5:0.175 6:0.112 7:0.13600001 8:2.391 9:-1.6289999 10:-0.456 11:-0.89099997 12:2.4560001 13:0.012 #
-2 1:0.68099999 2:0.082999997 3:0.145 4:0.167 5:0.18000001 6:0.116 7:0.118 8:3.1500001 9:-1.405 10:-0.38600001 11:-0.96200001 12:2.5009999 13:0.509 #
2 1:0.58700001 2:0.25299999 3:0.0060000001 4:0.0060000001 5:0.0070000002 6:0.0049999999 7:1 8:4 9:-1 10:0.30000001 11:0 12:2.7449999 13:0.003 #
2 1:0.74199998 2:-0.405 3:0.25299999 4:0.30399999 5:0.32300001 6:0.17900001 7:0.156 8:2.5 9:-1.753 10:-0.38800001 11:-0.94800001 12:2.0929999 13:1.012 #
-2 1:0.78600001 2:0.021 3:0.14 4:0.176 5:0.226 6:0.093000002 7:0.077 8:3.3180001 9:-1.8380001 10:-0.414 11:-0.94999999 12:2.6099999 13:0.041000001 #
2 1:0.76499999 2:0.048 3:0.177 4:0.20299999 5:0.23800001 6:0.148 7:0.117 8:2.3789999 9:-1.757 10:-0.44400001 11:-0.94099998 12:2.3710001 13:0.34599999 #
2 1:0.61900002 2:0.34599999 3:0.02 4:0.046 5:0.044 6:0.033 7:0.28 8:4.8569999 9:-0.58499998 10:-0.368 11:-1 12:2.7850001 13:0.001 #
2 1:0.75300002 2:0.29300001 3:0.118 4:0.12 5:0.19400001 6:0.115 7:0.102 8:4.0320001 9:-1.416 10:-0.486 11:-0.92299998 12:2.563 13:0.46799999 #
-2 1:0.74000001 2:0.25999999 3:0.066 4:0.14 5:0.17 6:0.122 7:0.125 8:3.5 9:-2.1240001 10:-0.301 11:-0.83600003 12:2.4519999 13:0.648 #
2 1:0.67199999 2:0.198 3:0.198 4:0.25799999 5:0.27599999 6:0.132 7:0.050999999 8:3 9:-1.794 10:-0.373 11:-0.972 12:2.642 13:0.034000002 #
2 1:0.74900001 2:0.322 3:0.121 4:0.121 5:0.197 6:0.121 7:0.093000002 8:3.8329999 9:-1.867 10:-0.38100001 11:-0.88599998 12:2.563 13:0.46799999 #
2 1:0.57700002 2:-0.17299999 3:0.003 4:0.0049999999 5:0.017000001 6:0.0060000001 7:1 8:1 9:-1 10:0.30000001 11:0 12:2.4649999 13:0 #
2 1:0.74800003 2:0.142 3:0.134 4:0.30399999 5:0.56900001 6:0.20299999 7:0.222 8:2.125 9:-1.313 10:-0.55699998 11:-0.81599998 12:1.763 13:0.029999999 #
-2 1:0.67699999 2:0.414 3:0.14 4:0.149 5:0.211 6:0.12800001 7:0.103 8:3.6500001 9:-1.911 10:-0.287 11:-0.95499998 12:2.4890001 13:0.27399999 #
2 1:0.76499999 2:0.28 3:0.114 4:0.121 5:0.191 6:0.106 7:0.105 8:4.1999998 9:-1.432 10:-0.47499999 11:-0.94700003 12:2.5650001 13:0.463 #
-2 1:0.77399999 2:0.34200001 3:0.101 4:0.24600001 5:0.40200001 6:0.138 7:0.162 8:1.684 9:-0.87599999 10:-0.542 11:-0.73000002 12:1.964 13:0.212 #
2 1:0.73799998 2:0.12 3:0.116 4:0.123 5:0.199 6:0.109 7:0.098999999 8:3.733 9:-0.76599997 10:-0.542 11:-0.972 12:2.5650001 13:0.45100001 #
-2 1:0.73299998 2:0.26899999 3:0.118 4:0.141 5:0.171 6:0.089000002 7:0.13600001 8:3.3039999 9:-1.395 10:-0.542 11:-0.745 12:2.4909999 13:0.067000002 #
-2 1:0.69199997 2:0.168 3:0.155 4:0.204 5:0.221 6:0.097000003 7:0.14300001 8:2.5999999 9:-1.9809999 10:-0.398 11:-0.86000001 12:2.336 13:0.012 #
2 1:0.699 2:0.22499999 3:0.189 4:0.241 5:0.301 6:0.134 7:0.045000002 8:2.9809999 9:-2.1270001 10:-0.31400001 11:-0.99400002 12:2.625 13:0.041000001 #
-2 1:0.73500001 2:0.204 3:0.116 4:0.123 5:0.191 6:0.109 7:0.106 8:4.1110001 9:-1.495 10:-0.45199999 11:-0.972 12:2.5650001 13:0.46900001 #
-2 1:0.61400002 2:0.035 3:0.163 4:0.205 5:0.19499999 6:0.112 7:0.067000002 8:2.184 9:-2.1589999 10:-0.39500001 11:-0.86799997 12:2.7049999 13:0.022 #
-2 1:0.69499999 2:0.205 3:0.17900001 4:0.25 5:0.255 6:0.1 7:0.057 8:3.1199999 9:-2.3540001 10:-0.31600001 11:-0.91900003 12:2.635 13:0.016000001 #
2 1:0.685 2:0.36500001 3:0.13699999 4:0.154 5:0.15800001 6:0.113 7:0.088 8:2.3329999 9:-1.2970001 10:-0.40400001 11:-0.99900001 12:2.5420001 13:0.58399999 #
2 1:0.67400002 2:0.0080000004 3:0.096000001 4:0.108 5:0.124 6:0.079000004 7:0.192 8:2.267 9:-1.604 10:-0.45100001 11:-0.88999999 12:2.4519999 13:1.317 #
-2 1:0.72399998 2:0.38699999 3:0.134 4:0.13500001 5:0.177 6:0.132 7:0.103 8:3.3499999 9:-2.3840001 10:-0.23999999 11:-0.87900001 12:2.4519999 13:0.648 #
2 1:0.83099997 2:0.40599999 3:0.183 4:0.221 5:0.197 6:0.13500001 7:0.093999997 8:2.372 9:-1.5549999 10:-0.51899999 11:-0.88599998 12:2.5250001 13:0.56999999 #
-2 1:0.80500001 2:0.301 3:0.041000001 4:0.109 5:0.097999997 6:0.041000001 7:0.28299999 8:1.294 9:-1.196 10:-0.64399999 11:-0.91000003 12:2.369 13:1.35 #
2 1:0.70099998 2:0.079000004 3:0.071000002 4:0.072999999 5:0.081 6:0.068999998 7:0.147 8:2.6960001 9:-1.5 10:-0.484 11:-0.847 12:2.747 13:1.53 #
-2 1:0.77499998 2:0.0040000002 3:0.111 4:0.13600001 5:0.142 6:0.078000002 7:0.19 8:2.875 9:-1.579 10:-0.43000001 11:-0.96200001 12:2.378 13:1.206 #
2 1:0.72899997 2:0.182 3:0.16500001 4:0.207 5:0.248 6:0.114 7:0.064999998 8:3.0469999 9:-1.79 10:-0.37799999 11:-0.94599998 12:2.6140001 13:0.048999999 #
-2 1:0.74400002 2:0.347 3:0.037999999 4:0.041999999 5:0.050000001 6:0.030999999 7:0.2 8:2.6429999 9:-1.482 10:-0.48100001 11:-0.88300002 12:2.714 13:0.0099999998 #
2 1:0.73500001 2:0.31999999 3:0.126 4:0.126 5:0.15800001 6:0.126 7:0.138 8:3.484 9:-1.631 10:-0.55699998 11:-0.89399999 12:2.55 13:1.224 #
-2 1:0.75400001 2:0.057999998 3:0.068999998 4:0.037999999 5:0.041000001 6:0.016000001 7:0.2 8:3.2379999 9:-1.46 10:-0.579 11:-0.83499998 12:3.125 13:1.974 #
-2 1:0.75300002 2:0.55199999 3:0.039999999 4:0.030999999 5:0.043000001 6:0.050999999 7:0.15700001 8:4.211 9:-1.573 10:-0.47600001 11:-0.833 12:2.974 13:1.0089999 #
2 1:0.76999998 2:0.092 3:0.14300001 4:0.139 5:0.23999999 6:0.148 7:0.115 8:1.857 9:-1.2539999 10:-0.414 11:-0.99900001 12:2.3840001 13:0.101 #
-2 1:0.77600002 2:0.113 3:0.125 4:0.133 5:0.193 6:0.116 7:0.094999999 8:4.4060001 9:-1.489 10:-0.46399999 11:-0.93099999 12:2.566 13:0.477 #
2 1:0.72600001 2:0.368 3:0.050000001 4:0.046999998 5:0.090000004 6:0.055 7:0.18799999 8:2.8889999 9:-2.2119999 10:-0.234 11:-0.99599999 12:2.507 13:0.003 #
2 1:0.75800002 2:-0.119 3:0.177 4:0.228 5:0.252 6:0.116 7:0.061000001 8:2.8499999 9:-1.865 10:-0.417 11:-0.921 12:2.632 13:0.0099999998 #
2 1:0.71899998 2:0.56099999 3:0.111 4:0.094999999 5:0.132 6:0.13600001 7:0.204 8:3.5450001 9:-1.421 10:-0.56599998 11:-0.89499998 12:2.5599999 13:1.4299999 #
2 1:0.67199999 2:0.266 3:0.152 4:0.183 5:0.248 6:0.114 7:0.068000004 8:2.9719999 9:-2.4100001 10:-0.28600001 11:-0.90799999 12:2.6059999 13:0.034000002 #
2 1:0.741 2:0.259 3:0.12899999 4:0.138 5:0.197 6:0.119 7:0.1 8:3.812 9:-1.723 10:-0.442 11:-0.82499999 12:2.5580001 13:0.447 #
2 1:0.75099999 2:0.164 3:0.169 4:0.20299999 5:0.289 6:0.124 7:0.082999997 8:2.325 9:-1.949 10:-0.449 11:-0.93900001 12:2.3710001 13:0.215 #
-2 1:0.745 2:0.067000002 3:0.156 4:0.21699999 5:0.23199999 6:0.082000002 7:0.141 8:2.556 9:-1.38 10:-0.56800002 11:-0.93900001 12:2.3069999 13:0.38800001 #
2 1:0.73299998 2:0.22499999 3:0.12 4:0.132 5:0.197 6:0.107 7:0.108 8:3.6129999 9:-1.642 10:-0.46799999 11:-0.80800003 12:2.5680001 13:0.46200001 #
-2 1:0.722 2:0.58899999 3:0.13500001 4:0.14300001 5:0.139 6:0.124 7:0.077 8:2.743 9:-1.864 10:-0.373 11:-0.93900001 12:2.8340001 13:0.66299999 #
2 1:0.70700002 2:0.153 3:0.12 4:0.132 5:0.2 6:0.108 7:0.089000002 8:3.375 9:-1.832 10:-0.41999999 11:-0.83600003 12:2.5680001 13:0.46200001 #
-2 1:0.74000001 2:0.198 3:0.127 4:0.126 5:0.18700001 6:0.127 7:0.17399999 8:2.6800001 9:-1.451 10:-0.58399999 11:-0.84100002 12:2.4360001 13:0.028999999 #
2 1:0.55199999 2:0.40200001 3:0.096000001 4:0.079999998 5:0.14399999 6:0.114 7:0.167 8:1.533 9:-1.178 10:-0.43200001 11:-1 12:2.4100001 13:0.003 #
-2 1:0.64300001 2:0.07 3:0.131 4:0.13699999 5:0.15099999 6:0.123 7:0.054000001 8:3.467 9:-1.992 10:-0.322 11:-0.97299999 12:2.8699999 13:0.22 #
-2 1:0.741 2:0.43099999 3:0.192 4:0.23199999 5:0.48100001 6:0.12 7:0.257 8:2.2219999 9:-1.6670001 10:-0.34 11:-0.92500001 12:1.732 13:0 #
2 1:0.78799999 2:-0.086999997 3:0.1 4:0.117 5:0.12800001 6:0.079000004 7:0.097000003 8:3.1070001 9:-1.9529999 10:-0.34900001 11:-0.92000002 12:2.6719999 13:0.45500001 #
2 1:0.76499999 2:0.199 3:0.12800001 4:0.139 5:0.205 6:0.11 7:0.242 8:1.812 9:-1.355 10:-0.565 11:-0.97399998 12:2.1789999 13:0.95700002 #
-2 1:0.69199997 2:0.117 3:0.132 4:0.141 5:0.186 6:0.116 7:0.13699999 8:2.4400001 9:-1.507 10:-0.495 11:-0.86699998 12:2.4549999 13:0.015 #
-2 1:0.75700003 2:0.25600001 3:0.097000003 4:0.123 5:0.14 6:0.064999998 7:0.162 8:2.895 9:-1.631 10:-0.426 11:-0.92900002 12:2.444 13:0.0060000001 #
2 1:0.76300001 2:0.19400001 3:0.119 4:0.124 5:0.18700001 6:0.114 7:0.104 8:3.9000001 9:-1.432 10:-0.47499999 11:-0.94700003 12:2.5669999 13:0.454 #
-2 1:0.78600001 2:0.15000001 3:0.093000002 4:0.107 5:0.104 6:0.078000002 7:0.125 8:3.2079999 9:-1.751 10:-0.40200001 11:-0.90700001 12:2.7909999 13:0.414 #
2 1:0.73299998 2:0.12 3:0.16599999 4:0.208 5:0.242 6:0.116 7:0.067000002 8:2.9519999 9:-1.799 10:-0.38999999 11:-0.926 12:2.6199999 13:0.018999999 #
-2 1:0.77200001 2:0.236 3:0.059 4:0.14399999 5:0.18099999 6:0.090000004 7:0.13500001 8:3.154 9:-1.222 10:-0.26899999 11:-1 12:2.4419999 13:0.63599998 #
-2 1:0.74699998 2:0.050000001 3:0.27700001 4:0.34400001 5:0.26699999 6:0.192 7:0.027000001 8:2.5190001 9:-1.58 10:-0.433 11:-0.95700002 12:2.8510001 13:0.52499998 #
2 1:0.70700002 2:0.26199999 3:0.132 4:0.12899999 5:0.182 6:0.13600001 7:0.154 8:2.7079999 9:-1.64 10:-0.49000001 11:-0.921 12:2.438 13:0.025 #
-2 1:0.68400002 2:0.21699999 3:0.090999998 4:0.113 5:0.123 6:0.064999998 7:0.12899999 8:3.4119999 9:-1.478 10:-0.36399999 11:-0.99800003 12:2.5810001 13:0.15899999 #
2 1:0.70700002 2:-0.16500001 3:0.171 4:0.20999999 5:0.257 6:0.123 7:0.063000001 8:2.457 9:-2 10:-0.36199999 11:-0.97100002 12:2.6199999 13:0.0020000001 #
2 1:0.69599998 2:0.23999999 3:0.119 4:0.122 5:0.154 6:0.114 7:0.126 8:2.72 9:-1.73 10:-0.43399999 11:-0.98500001 12:2.6500001 13:1.377 #
-2 1:0.72799999 2:0.116 3:0.139 4:0.177 5:0.23100001 6:0.089000002 7:0.077 8:2.2969999 9:-2.016 10:-0.34999999 11:-0.88 12:2.6229999 13:0.0040000002 #
-2 1:0.713 2:0.45199999 3:0.132 4:0.134 5:0.177 6:0.13 7:0.104 8:3.316 9:-2.4000001 10:-0.229 11:-0.89700001 12:2.4519999 13:0.648 #
-2 1:0.59600002 2:0.25299999 3:0.032000002 4:0.037999999 5:0.054000001 6:0.023 7:0.31 8:1.7690001 9:-1.046 10:-0.60399997 11:-0.90899998 12:2.698 13:0.0049999999 #
-2 1:0.75099999 2:0.189 3:0.050999999 4:0.063000001 5:0.074000001 6:0.033 7:0.245 8:2.3329999 9:-0.778 10:-0.57599998 11:-0.62400001 12:2.605 13:0.0020000001 #
2 1:0.68699998 2:0.052000001 3:0.19499999 4:0.237 5:0.278 6:0.14399999 7:0.052999999 8:2.796 9:-2.23 10:-0.329 11:-0.85000002 12:2.6210001 13:0.017000001 #
-2 1:0.72399998 2:0.41100001 3:0.13600001 4:0.134 5:0.18000001 6:0.139 7:0.104 8:3.368 9:-2.4000001 10:-0.229 11:-0.89700001 12:2.4519999 13:0.648 #
2 1:0.71100003 2:-0.030999999 3:0.078000002 4:0.2 5:0.233 6:0.104 7:0.064999998 8:2.773 9:-0.921 10:-0.51099998 11:-0.86900002 12:2.615 13:0.029999999 #
-2 1:0.71399999 2:0.41800001 3:0.085000001 4:0.090999998 5:0.125 6:0.077 7:0.18799999 8:2.3329999 9:-1.45 10:-0.37 11:-0.99800003 12:2.408 13:1.072 #
-2 1:0.77899998 2:0.207 3:0.42500001 4:0.48500001 5:0.54699999 6:0.345 7:0.068000004 8:2.9690001 9:-2.3340001 10:-0.28600001 11:-0.98299998 12:2.283 13:0.59399998 #
2 1:0.78899997 2:0.075999998 3:0.057 4:0.13600001 5:0.139 6:0.086000003 7:0.061999999 8:2.98 9:-1.339 10:-0.493 11:-0.99699998 12:2.835 13:0.071000002 #
2 1:0.792 2:0.064999998 3:0.018999999 4:0.016000001 5:0.035999998 6:0.023 7:0.5 8:2.5 9:-1 10:-0.301 11:-1 12:2.52 13:0.066 #
2 1:0.676 2:0.1 3:0.15800001 4:0.193 5:0.255 6:0.113 7:0.059999999 8:2.773 9:-2.2920001 10:-0.30899999 11:-0.88700002 12:2.615 13:0.034000002 #
2 1:0.72299999 2:0.45300001 3:0.207 4:0.222 5:0.25999999 6:0.19 7:0.064999998 8:2.8640001 9:-2.194 10:-0.34299999 11:-0.91299999 12:2.585 13:0.62400001 #
2 1:0.51899999 2:0.163 3:0.057 4:0.041000001 5:0.161 6:0.086000003 7:0.278 8:3.3 9:-0.88300002 10:-0.53100002 11:-0.76700002 12:2.049 13:0.030999999 #
-2 1:0.77999997 2:0.149 3:0.146 4:0.19 5:0.213 6:0.094999999 7:0.152 8:3.28 9:-1.064 10:-0.61000001 11:-0.81099999 12:2.4030001 13:0.12800001 #
-2 1:0.72899997 2:-0.222 3:0.059 4:0.13699999 5:0.205 6:0.097000003 7:0.097000003 8:3.552 9:-0.90700001 10:-0.51200002 11:-0.88200003 12:2.5680001 13:0.46799999 #
-2 1:0.74699998 2:0.20900001 3:0.142 4:0.19599999 5:0.197 6:0.082999997 7:0.12800001 8:2.5599999 9:-0.80299997 10:-0.61199999 11:-0.52399999 12:2.358 13:0.046 #
2 1:0.75300002 2:-0.071999997 3:0.17200001 4:0.212 5:0.255 6:0.119 7:0.063000001 8:2.947 9:-1.798 10:-0.43399999 11:-0.81599998 12:2.6140001 13:0.027000001 #
2 1:0.67799997 2:0.0080000004 3:0.189 4:0.233 5:0.264 6:0.13699999 7:0.050999999 8:2.7409999 9:-1.931 10:-0.36000001 11:-0.91399997 12:2.6229999 13:0.012 #
-2 1:0.70499998 2:0.32800001 3:0.32699999 4:0.38299999 5:0.287 6:0.25600001 7:0.022 8:2.53 9:-2.217 10:-0.29499999 11:-0.91399997 12:2.9660001 13:0 #
-2 1:0.69300002 2:0.057999998 3:0.1 4:0.12 5:0.148 6:0.075999998 7:0.163 8:2.154 9:-1.482 10:-0.40000001 11:-0.83600003 12:2.4419999 13:0.64700001 #
-2 1:0.60900003 2:0.111 3:0.092 4:0.115 5:0.126 6:0.057999998 7:0.17 8:2.533 9:-1.574 10:-0.42300001 11:-0.98799998 12:2.378 13:1.277 #
2 1:0.71799999 2:0.296 3:0.118 4:0.122 5:0.12899999 6:0.112 7:0.075999998 8:2.9519999 9:-2 10:-0.39700001 11:-0.97500002 12:2.809 13:0.15000001 #
-2 1:0.67299998 2:-0.266 3:0.052999999 4:0.124 5:0.124 6:0.085000001 7:0.13 8:2.75 9:-1.063 10:-0.46799999 11:-0.93099999 12:2.589 13:1.109 #
2 1:0.69800001 2:-0.27200001 3:0.074000001 4:0.14300001 5:0.176 6:0.153 7:0.086999997 8:2.8 9:-2.171 10:-0.27900001 11:-0.98400003 12:2.628 13:0.189 #
2 1:0.70300001 2:0.264 3:0.037 4:0.066 5:0.149 6:0.088 7:0.145 8:2.438 9:-1.339 10:-0.39399999 11:-1 12:2.543 13:0.027000001 #
-2 1:0.73299998 2:0.354 3:0.153 4:0.193 5:0.222 6:0.102 7:0.155 8:3.5 9:-0.986 10:-0.68300003 11:-0.68099999 12:2.3440001 13:0.02 #
2 1:0.78299999 2:0.041000001 3:0.114 4:0.118 5:0.184 6:0.109 7:0.123 8:4.1939998 9:-0.94 10:-0.62699997 11:-0.958 12:2.5680001 13:0.47400001 #
2 1:0.74299997 2:0.085000001 3:0.17 4:0.20200001 5:0.219 6:0.131 7:0.111 8:2.25 9:-1.8099999 10:-0.38999999 11:-0.89200002 12:2.493 13:1.058 #
-2 1:0.72500002 2:0.377 3:0.061000001 4:0.155 5:0.176 6:0.086000003 7:0.149 8:2.24 9:-1.3789999 10:-0.514 11:-0.86900002 12:2.418 13:0.0070000002 #
-2 1:0.72100002 2:0.257 3:0.13699999 4:0.156 5:0.182 6:0.115 7:0.13600001 8:2.7219999 9:-1.177 10:-0.435 11:-0.97899997 12:2.3069999 13:0.38800001 #
-2 1:0.75099999 2:0.191 3:0.12800001 4:0.12800001 5:0.17399999 6:0.12899999 7:0.16 8:2.5999999 9:-1.564 10:-0.528 11:-0.88599998 12:2.4579999 13:0.015 #
2 1:0.62099999 2:-0.67699999 3:0.0089999996 4:0.024 5:0.030999999 6:0.012 7:0.667 8:2.25 9:-1.063 10:-0.46799999 11:-0.93099999 12:2.7690001 13:0 #
2 1:0.77700001 2:0.36500001 3:0.61699998 4:0.76200002 5:0.75999999 6:0.463 7:0.055 8:2.8640001 9:-2.0009999 10:-0.39300001 11:-0.93599999 12:2.1110001 13:0.5 #
-2 1:0.69099998 2:0.177 3:0.082000002 4:0.103 5:0.127 6:0.052999999 7:0.19499999 8:2.1329999 9:-1.5039999 10:-0.435 11:-0.99900001 12:2.4000001 13:0.024 #
2 1:0.69499999 2:0.49700001 3:0.035999998 4:0.037999999 5:0.059999999 6:0.034000002 7:0.23800001 8:2.8 9:-1.278 10:-0.40900001 11:-0.99599999 12:2.5869999 13:0 #
-2 1:0.73000002 2:0.35100001 3:0.132 4:0.13600001 5:0.182 6:0.12800001 7:0.104 8:3.632 9:-2.4000001 10:-0.229 11:-0.89700001 12:2.4560001 13:0.62300003 #
2 1:0.73500001 2:0.43599999 3:0.14300001 4:0.17200001 5:0.30899999 6:0.092 7:0.185 8:2.0669999 9:-1.126 10:-0.48300001 11:-0.78200001 12:1.8329999 13:0.18099999 #
-2 1:0.76300001 2:-0.017000001 3:0.456 4:0.51499999 5:0.755 6:0.366 7:0.167 8:2.533 9:-1.363 10:-0.40799999 11:-0.89600003 12:1.6900001 13:0.125 #
2 1:0.69599998 2:0.368 3:0.089000002 4:0.093999997 5:0.122 6:0.082999997 7:0.121 8:2.0910001 9:-1.217 10:-0.44999999 11:-0.84200001 12:2.734 13:0.0099999998 #
2 1:0.759 2:0.226 3:0.103 4:0.108 5:0.176 6:0.097000003 7:0.118 8:4.2309999 9:-1.711 10:-0.419 11:-0.88099998 12:2.5610001 13:0.47099999 #
-2 1:0.69499999 2:-0.22400001 3:0.155 4:0.199 5:0.229 6:0.101 7:0.061000001 8:2.783 9:-2.1110001 10:-0.33000001 11:-0.86400002 12:2.6270001 13:0.07 #
-2 1:0.72799999 2:-0.035 3:0.153 4:0.193 5:0.23800001 6:0.103 7:0.071000002 8:3.2379999 9:-1.6109999 10:-0.44 11:-0.92400002 12:2.6229999 13:0.012 #
2 1:0.73299998 2:0.38499999 3:0.059 4:0.119 5:0.162 6:0.117 7:0.102 8:2.4189999 9:-1.78 10:-0.42300001 11:-0.847 12:2.48 13:0.18099999 #
-2 1:0.796 2:0.322 3:0.072999999 4:0.093000002 5:0.109 6:0.041000001 7:0.19 8:2 9:-1.4529999 10:-0.46000001 11:-0.97000003 12:2.441 13:1.382 #
-2 1:0.68699998 2:-0.107 3:0.169 4:0.211 5:0.26100001 6:0.115 7:0.07 8:3.2969999 9:-2.2049999 10:-0.30500001 11:-0.91000003 12:2.6170001 13:0.037999999 #
-2 1:0.76599997 2:0.242 3:0.045000002 4:0.052999999 5:0.057 6:0.034000002 7:0.132 8:3.0420001 9:-1.777 10:-0.43099999 11:-0.95999998 12:2.9000001 13:0.32499999 #
-2 1:0.70899999 2:0.245 3:0.176 4:0.211 5:0.168 6:0.12899999 7:0.028000001 8:2.802 9:-1.781 10:-0.454 11:-0.90100002 12:3.109 13:0.121 #
-2 1:0.71200001 2:0.34999999 3:0.163 4:0.214 5:0.20999999 6:0.1 7:0.117 8:3.6070001 9:-1.635 10:-0.461 11:-0.87699997 12:2.3670001 13:0.034000002 #
2 1:0.74800003 2:0.056000002 3:0.055 4:0.054000001 5:0.086000003 6:0.056000002 7:0.5 8:2.3329999 9:-2 10:-0.176 11:-1 12:2.5580001 13:1.147 #
-2 1:0.70300001 2:0.075999998 3:0.16500001 4:0.229 5:0.20900001 6:0.090999998 7:0.090999998 8:2.9030001 9:-1.652 10:-0.41100001 11:-0.96700001 12:2.405 13:0 #
-2 1:0.68000001 2:0.49900001 3:0.12800001 4:0.12 5:0.214 6:0.138 7:0.15800001 8:4.053 9:-1.631 10:-0.426 11:-0.92900002 12:2.201 13:0.059999999 #
-2 1:0.792 2:0.026000001 3:0.116 4:0.124 5:0.15000001 6:0.103 7:0.233 8:3.5710001 9:-1 10:-0.48500001 11:-0.94700003 12:2.415 13:1.245 #
-2 1:0.69999999 2:-0.050000001 3:0.035999998 4:0.071000002 5:0.071000002 6:0.072999999 7:0.086999997 8:2.3599999 9:-1.696 10:-0.32600001 11:-0.95899999 12:3.0580001 13:0 #
2 1:0.76099998 2:0.242 3:0.14 4:0.13500001 5:0.178 6:0.146 7:0.085000001 8:3.3510001 9:-1.8380001 10:-0.40799999 11:-0.96600002 12:2.6129999 13:0.64999998 #
-2 1:0.76700002 2:-0.19 3:0.18000001 4:0.20299999 5:0.28 6:0.148 7:0.2 8:2 9:-2.2119999 10:-0.234 11:-0.99599999 12:2 13:0.954 #
2 1:0.79900002 2:0.147 3:0.28299999 4:0.34999999 5:0.36500001 6:0.20299999 7:0.071999997 8:2.586 9:-1.475 10:-0.56099999 11:-0.86299998 12:2.4070001 13:0.017000001 #
2 1:0.796 2:-0.122 3:0.097999997 4:0.114 5:0.122 6:0.078000002 7:0.094999999 8:3.138 9:-1.6950001 10:-0.40400001 11:-0.95999998 12:2.6789999 13:0.46399999 #
-2 1:0.764 2:0.28400001 3:0.114 4:0.121 5:0.183 6:0.106 7:0.11 8:4.25 9:-1.441 10:-0.46799999 11:-0.96700001 12:2.5650001 13:0.48199999 #
2 1:0.75800002 2:0.048 3:0.012 4:0.011 5:0.017999999 6:0.013 7:0.5 8:2 9:-1.465 10:-0.204 11:-1 12:2.6600001 13:0.0020000001 #
-2 1:0.31200001 2:0.329 3:0.0070000002 4:0.0070000002 5:0.016000001 6:0.0070000002 7:1 8:1 9:-1 10:0.30000001 11:0 12:2.648 13:0.0020000001 #
2 1:0.69400001 2:0.198 3:0.127 4:0.138 5:0.20900001 6:0.114 7:0.090000004 8:3.625 9:-1.864 10:-0.38999999 11:-0.86799997 12:2.566 13:0.465 #
2 1:0.72299999 2:0.30500001 3:0.055 4:0.097000003 5:0.14300001 6:0.12899999 7:0.089000002 8:2.744 9:-1.221 10:-0.54400003 11:-0.92000002 12:2.6589999 13:0.35800001 #
2 1:0.86199999 2:0.20999999 3:0.228 4:0.23199999 5:0.373 6:0.221 7:0.28799999 8:3.368 9:-1.045 10:-0.69400001 11:-0.91799998 12:1.826 13:0.75599998 #
-2 1:0.71100003 2:0.15000001 3:0.22499999 4:0.21600001 5:0.248 6:0.23899999 7:0.033 8:3.155 9:-2.3610001 10:-0.29800001 11:-0.92500001 12:2.8629999 13:0.1 #
2 1:0.77700001 2:0.493 3:0.037999999 4:0.046 5:0.096000001 6:0.028000001 7:0.375 8:1.6670001 9:-1 10:-0.301 11:-1 12:2.358 13:0 #
2 1:0.72299999 2:0.50199997 3:0.057999998 4:0.041000001 5:0.096000001 6:0.081 7:0.26699999 8:4.125 9:-1.712 10:-0.31900001 11:-0.97500002 12:2.3380001 13:0 #
2 1:0.722 2:0.139 3:0.249 4:0.59299999 5:0.5 6:0.36700001 7:0.028000001 8:2.605 9:-2.0090001 10:-0.37799999 11:-0.91799998 12:2.598 13:0.229 #
2 1:0.75800002 2:0.072999999 3:0.12800001 4:0.139 5:0.207 6:0.115 7:0.075999998 8:3.971 9:-2.0639999 10:-0.32499999 11:-0.91000003 12:2.566 13:0.465 #
-2 1:0.75199997 2:0.26300001 3:0.037999999 4:0.026000001 5:0.061000001 6:0.056000002 7:0.23999999 8:4 9:-2 10:-0.176 11:-1 12:2.6289999 13:0 #
2 1:0.72899997 2:0.354 3:0.059 4:0.13500001 5:0.142 6:0.097999997 7:0.13500001 8:2.1760001 9:-2.152 10:-0.30000001 11:-0.95700002 12:2.5280001 13:0.63800001 #
-2 1:0.72799999 2:0.17299999 3:0.123 4:0.13600001 5:0.20299999 6:0.109 7:0.097999997 8:4.0300002 9:-1.322 10:-0.5 11:-0.986 12:2.5669999 13:0.472 #
2 1:0.648 2:0.037 3:0.061000001 4:0.134 5:0.19599999 6:0.108 7:0.085000001 8:1.897 9:-1.619 10:-0.42199999 11:-0.97299999 12:2.513 13:0 #
-2 1:0.76899999 2:0.199 3:0.075000003 4:0.096000001 5:0.101 6:0.041000001 7:0.229 8:1.625 9:-1.1289999 10:-0.55900002 11:-0.97500002 12:2.427 13:1.41 #
-2 1:0.77100003 2:0.086000003 3:0.082999997 4:0.215 5:0.15000001 6:0.107 7:0.057 8:2.2219999 9:-2.2360001 10:-0.29100001 11:-0.89600003 12:2.8340001 13:0.003 #
-2 1:0.64600003 2:0.162 3:0.052000001 4:0.139 5:0.17 6:0.059999999 7:0.133 8:1.842 9:-1.921 10:-0.34400001 11:-0.96899998 12:2.4219999 13:0.026000001 #
2 1:0.736 2:0.361 3:0.107 4:0.105 5:0.13500001 6:0.111 7:0.13500001 8:3.0739999 9:-1.564 10:-0.53500003 11:-0.87699997 12:2.5680001 13:1.243 #
2 1:0.74699998 2:0.075000003 3:0.121 4:0.13 5:0.162 6:0.111 7:0.12899999 8:3.2260001 9:-1.58 10:-0.5 11:-0.93099999 12:2.553 13:1.25 #
